	0	1	2	3	4	5	6	7	8	9	10	11	12	13	14	15	16	17	18	19	20	21	22	23	24	25	26	27	28	29	30	31	32	33	34	35	36	37	38	39	40	41	42	43	44	45	46	47	48	49	50	51	52	53	54	55	56	57	58	59	60	61	62	63	64	65	66	67	68	69	70	71	72	73	74	75	76	77	78	79	80	81	82	83	84	85	86	87	88	89	90	91	92	93	94	95	96	97	98	99	100	101	102	103	104	105	106	107	108	109	110	111	112	113	114	115	116	117	118	119	120	121	122	123	124	125	126	127	128	129	130	131	132	133	134	135	136	137	138	139	140	141	142	143	144	145	146	147	148	149	150	151	152	153	154	155	156	157	158	159	160	161	162	163	164	165	166	167	168	169	170	171	172	173	174	175	176	177	178	179	180	181	182	183	184	185	186	187	188	189	190	191	192	193	194	195	196	197	198	199	origin
smooth-muscle-cell	-0.0460342	0.17864436	-0.10519732	0.040215045	0.0303685	0.26732382	-0.031543948	-0.14787616	0.0718626	-0.33237678	-0.09341381	-0.03824111	0.1677662	0.12171683	-0.050007872	-0.13844506	-0.12785709	-0.32585827	-0.06729242	-0.18824497	-0.07831563	-0.003292382	-0.07814138	0.16127707	-0.2401452	-0.25458956	-0.10774058	0.15774621	-0.20775664	-0.25593594	-0.04783117	-0.041902035	-0.21756588	0.09190284	-0.17083271	-0.19474395	-0.031745758	0.023333743	0.030161086	-0.2793713	0.09857943	-0.09934898	-0.054378625	0.13223557	0.028355034	0.0143743185	0.025064558	-0.19248447	0.04974498	0.13796012	-0.14207718	0.008812314	-0.060079344	-0.09691461	-0.17671624	-0.21792984	0.17238688	-0.19140154	-0.14751126	0.21119714	0.21393274	-0.20298266	0.11780867	-0.0839841	0.11986247	-0.054782536	-0.08720913	0.08064532	0.071858495	-0.0589216	-0.16939989	0.120390326	0.08660593	-0.045670513	0.1451188	0.1470786	-0.06369797	0.22608054	0.12137605	0.15613374	-0.1284779	-0.15183285	-0.025450397	-0.22314754	0.10601334	0.122330375	0.07522514	-0.23608088	-0.034284785	-0.10907232	-0.17185293	0.11163166	0.12616588	-0.18639417	0.10713574	0.020760437	-0.023741793	-0.10740818	-0.060835756	-0.074374974	-0.1948298	-0.023698347	-0.0025599196	-0.08517904	0.17893046	0.08814649	-0.041062865	0.0030214614	0.13917165	0.10896928	0.15781942	0.04733731	0.17097269	0.06667768	0.02873675	-0.31033227	0.19979618	-0.109500274	0.12065686	-0.1482957	-0.093537495	0.027730267	-0.16822614	0.13988322	-0.045570914	0.25378197	0.15884972	0.12977599	-0.121126756	-0.20518412	-0.1359937	0.08822334	0.19335851	0.13071278	-0.08214641	-0.13418363	-0.09693989	0.059935544	-0.17561355	-0.0078084543	-0.28491253	0.1919712	0.0082494635	-0.059976652	0.0050185705	0.15934558	-0.027580624	0.08009381	0.017053414	0.11838261	0.005475396	0.043984015	-0.05464407	-0.025724646	0.004552326	-0.18320732	-0.38101336	-0.04130574	0.060188886	0.1736072	0.15324482	-0.04505624	-0.0062730163	-0.08074889	-0.027263334	0.03191531	0.019133832	-0.007870932	0.15305917	-0.032767918	0.076441005	-0.044837087	-0.10770027	0.10344527	-0.29576835	-0.03050521	0.04050482	-0.25495017	0.095713854	-0.15091443	-0.20223607	-0.1151171	-0.11233034	-0.025703015	0.06976696	0.024563454	-0.053578004	0.114190295	0.16735572	0.13090718	-0.039202753	0.070629045	0.14384428	0.08109957	0.12486355	-0.051552676	0.120258324	-0.013235389	0.008261173	-0.1717914	Smooth-muscle-cells
Epithelial-cell	0.043382533	0.0032448967	-0.06983329	0.019254817	-0.030861007	0.04208989	-0.05380756	-0.055278342	0.013128347	-0.07516994	-0.05413423	-0.0659577	0.056796614	-0.02968884	-0.013863653	0.01915612	-0.0124163665	-0.03213593	0.03239759	-0.0015789701	0.0075772135	-0.06843022	-0.039359316	-0.005846992	-0.10559371	0.012493562	0.06475409	0.06227578	-0.019168014	-0.039294828	0.05298144	0.010162482	0.010921279	0.024811275	-0.09869783	-0.11209822	-0.007403056	-0.0146735925	-0.01593902	-0.03509701	-0.07784183	-0.07243885	-0.030240795	-0.053322624	-0.018265877	0.06537969	-0.03131817	-0.04549449	-0.04982737	-0.05422668	0.016516974	-0.05687213	-0.048110027	-0.0072543207	-0.043918308	-0.064640135	-0.006264835	-0.0886268	0.033923388	-0.004050352	0.0438259	-0.029504677	-4.731858e-05	0.001620118	0.054393165	0.0019045412	0.0494031	0.010790109	0.038115684	0.040650047	-0.00742345	-0.051864285	0.025541838	0.014221809	0.14635748	-0.095773585	-0.011694229	-0.013824369	0.059366465	-0.073317975	0.07871951	-0.075013526	0.014714184	-0.09186364	-0.008156101	0.07560569	0.106552824	-0.0024560671	0.01171344	-0.0252737	0.036303934	0.046134017	-0.029070202	0.0005959461	0.05858232	0.023124624	0.0117027005	0.000508021	-0.078103	0.042732216	-0.05090232	0.06565707	-0.07489197	0.04476533	-0.012531466	0.07804156	-0.024850285	0.02962315	-0.009173709	0.021511307	0.059665382	-0.022631777	0.12747556	0.025154097	0.008106755	-0.13038456	0.07772314	-0.03695995	-0.050300278	-0.025205437	-0.056463543	0.04850368	0.019771999	-0.074656956	-0.033416584	0.14784914	0.037850503	0.052323133	0.006436169	-0.009865502	0.017004017	0.0728774	-0.034057744	0.067068204	0.053696826	-0.027823448	-0.09287183	-0.040141482	0.00026353833	0.037115656	-0.022621334	-0.040680707	0.006510885	-0.031199114	0.02995244	-0.04701281	-0.010300032	0.015726333	0.07957877	-0.035604108	-0.034453142	0.036535233	-0.036420003	0.008771405	-0.028338935	0.0098657375	-0.038442817	0.012124386	0.017387388	0.027095888	0.0032187516	-0.07286984	-0.091910765	-0.006432242	-0.0349952	-0.0346786	0.0017698695	0.06476747	-0.004016036	-0.03619281	-0.0242137	-0.010727822	-0.022978613	-0.0880653	-0.10305891	0.025762698	-0.019391946	-0.0022233888	0.03999309	-0.0056724604	0.0036632607	4.548987e-05	-0.08341759	-0.07822241	0.032626458	0.00027169104	0.014713805	-0.030671606	-0.050043117	0.027945433	0.006650867	-0.0007108382	0.07653734	0.06589329	0.11163931	-0.054093234	-0.030910196	0.053404275	-0.04079732	0.02312679	Epithelial-cells
epithelial-cells	0.08081477	0.03698848	-0.20274258	0.057351008	0.06543507	-0.0017452147	-0.025945578	-0.07587128	-0.0033337804	-0.21856762	-0.044364396	0.05753661	0.22602744	-0.06444211	0.037395738	0.0691186	-0.056538362	-0.08999459	0.004003006	0.014634317	-0.0804666	-0.15823102	-0.063886955	-0.077630594	-0.034977827	-0.12353489	-0.03974553	0.011619148	-0.055435956	-0.08732594	0.07348074	0.09169504	-0.08114993	0.08185379	0.016835188	-0.12563495	0.092402115	-0.31095985	0.0285562	-0.047788955	0.08149621	-0.099046096	-0.039261397	0.15303382	0.09912713	-0.047840755	0.07724255	-0.07491625	-0.061029162	-0.08193444	0.03746375	-0.08720244	-0.05685921	0.020220002	-0.08440528	0.030691084	0.13602403	0.025455179	-0.0150873	-0.010231314	0.010172128	-0.074008465	0.03516995	0.14825809	-0.10295686	0.08265892	0.059895582	-0.015360789	0.023746375	-0.035086352	-0.16698234	0.06985067	0.12724681	0.13348177	0.14448981	0.09570994	0.011842177	0.12900855	0.03157923	-0.06657398	-0.03543085	0.08587822	0.0728116	-0.036988094	0.11998195	0.063598074	0.04170498	0.083843425	0.018455714	0.11861249	-0.11437072	0.13180552	0.11038608	-0.06732241	0.01825533	0.10616957	0.06680986	0.059501197	0.16969903	0.11926996	-0.09990617	0.047068827	-0.055985026	-0.053315025	0.07851516	0.17611536	-0.045760006	0.018343993	0.088102095	0.056605034	0.023665847	-0.054088008	0.060240448	0.14529811	0.1194881	-0.027837548	0.07615107	0.13280246	0.078847736	-0.08958792	-0.10513397	0.096660264	-0.029906537	0.02613372	-0.05083772	0.14799982	0.06047548	-0.10241804	-0.07031413	-0.06310412	-0.16353282	0.025263581	-0.10268911	0.26474443	-0.0527357	0.045209344	-0.049514163	-0.20260812	0.09845336	0.024448551	-0.068918996	-0.09039341	-0.08474904	0.040822946	0.062808946	0.034911394	-0.014238938	0.06263716	0.014994784	-0.012313381	-0.06125418	0.093840465	-0.029598495	-0.09699727	-0.07755078	-0.042268764	-0.070447356	-0.13566253	0.13535199	0.042130355	0.11488997	0.023129845	-0.26855958	-0.039833184	0.05871762	-0.0044036126	0.004521695	-0.0591655	0.0014624426	-0.18553007	0.093415394	-0.03848289	-0.17304343	-0.031907897	-0.23085713	0.17432821	-0.011268972	0.045398954	0.11623979	0.015841063	0.08427799	-0.08597026	-0.082052134	-0.005238015	-0.140559	-0.10072106	0.029035611	-0.1368369	0.08410453	-0.030921811	-0.040768363	0.099311724	0.087283194	0.09794392	0.07239401	-0.008789907	-0.09102981	0.09526456	-0.010256701	0.013685569	Epithelial-cells
epithelial-cell	0.14835122	-0.08742495	-0.26796877	0.044066675	0.135006	0.094618306	0.040939495	-0.33834872	0.062479794	-0.27151912	0.1463598	-0.0052981214	0.32746547	-0.00541396	0.017804774	-0.104253784	-0.1436659	-0.4982191	0.05568569	-0.08755943	0.113360226	0.053938977	-0.34375453	-0.018119687	0.22197637	0.08651997	0.015454164	0.16688862	-0.4304997	-0.17967182	-0.004841765	0.16320735	0.044316676	0.49571714	-0.2362782	-0.49891376	0.029467056	-0.36127385	0.063417606	-0.13575228	-0.065954246	-0.33243996	0.09723735	-0.04218883	-0.16006352	0.1408388	0.15526077	-0.026107198	-0.006119381	-0.18736805	-0.1422773	-0.1276697	-0.13303746	-0.038805056	-0.14482163	-0.08257611	0.39148498	0.06850255	-0.08106424	-0.019856649	0.081746064	-0.20879409	-0.07534126	0.022769982	0.27254656	-0.12488915	0.05344979	0.078536786	0.09459001	0.10908458	-0.1321787	-0.33700645	-0.08784921	-0.021630548	0.31788486	0.009357655	-0.0992405	0.3342641	0.099321865	-0.2116301	-0.04205631	-0.097795755	0.121509835	-0.16683245	0.20140927	0.2607373	0.098116755	0.025848234	-0.0021827666	0.0869707	-0.03836591	0.12123254	0.20722574	-0.20267865	0.00034169678	-0.100958094	-0.0011054273	-0.094172046	0.12931725	-0.12792796	-0.227864	-0.13246845	-0.27476817	0.0037124448	0.11000739	0.20302376	0.022956675	0.052813098	0.013777365	0.017472917	-0.15398274	0.24185744	0.0724615	0.25651136	0.19093186	-0.20160447	0.38111973	-0.3779651	0.37604764	-0.076734014	-0.07075236	0.10664076	0.14481063	0.101731665	-0.0852783	0.24825528	0.21980971	0.19135961	-0.23677146	-0.048592605	-0.11583857	0.1051776	0.011476214	0.036117904	-0.16204973	-0.27222893	-0.14578688	-0.08026123	-0.010919947	0.12276314	0.07191657	-0.096904986	-0.23774435	-0.09021128	0.08529144	-0.17818113	-0.022022305	0.23469076	-0.04690859	-0.0103248665	-0.109390624	0.07052009	-0.14727885	-0.25078923	-0.050107285	-0.20572756	-0.4538179	-0.3200054	0.044949666	0.15281315	0.098941274	-0.10059093	-0.16997719	-0.024467973	0.017536521	-0.09997363	-0.32758695	-0.008315776	0.27470115	-0.23376614	0.030907141	-0.16073178	-0.429566	-0.08893688	-0.22400625	0.14495763	0.013290486	-0.15693983	0.34012264	0.09809575	0.19216436	0.07259425	-0.123514906	-0.2526518	-0.15438247	0.12702987	-0.101141095	-0.20030525	0.24662304	-0.11303257	0.19938873	-0.08913772	0.38731572	0.22733226	0.03809448	-0.23117357	-0.16901897	0.15464973	0.043894432	0.001520944	Epithelial-cells
T-Cells	-0.049043413	-0.16626465	-0.41379717	-0.17846799	0.19450924	0.33896303	-0.2689871	0.41231027	0.05976161	0.0036277615	-0.19555718	0.10708759	0.43329415	0.53385353	0.03760894	0.17956954	-0.045760628	-0.30720326	-0.0040433425	-0.08652177	0.18106575	-0.42532635	0.34161025	0.07455525	-0.23145424	-0.38065833	-0.14982301	0.24328828	-0.20189673	-0.04083411	0.30317563	-0.24727595	0.10336675	0.14865994	-0.3190754	0.0962485	0.18190761	-0.46448308	-0.1688846	0.042297453	0.3491753	-0.49924573	-0.22624888	0.20151195	0.08763255	-0.66866106	-0.30142793	-0.11523402	-0.03094857	0.09340935	0.32965645	-0.17425351	0.20222831	-0.18325341	0.10442075	-0.07963107	-0.311502	0.36815217	0.1599895	0.15984906	0.08707464	-0.18520804	0.08718994	0.31368846	0.018988257	0.42166746	0.14100036	-0.07392418	-0.45086536	0.1461297	-0.021806668	-0.054514863	0.44233412	-0.07012658	0.5394521	0.17075226	-0.5851379	0.10046911	-0.006981277	0.30307862	-0.3145308	0.113462724	0.3939324	-0.3645261	-0.20944662	-0.054553118	-0.16312419	0.25071403	-0.20692064	0.08396006	-0.27374047	0.54665613	0.22702946	0.21852872	-0.034874167	-0.20313407	-0.019583462	0.10723891	-0.32964015	0.12932692	0.123062275	0.3442642	0.426496	0.57053673	-0.108325206	0.18794757	0.11209608	-0.7320327	-0.12168701	-0.17484026	0.10909288	-0.09000233	-0.016680308	-0.1424184	-0.07539095	-0.27434444	0.03528594	-0.021136783	0.17873293	-0.28733417	0.01904778	-0.010315024	-0.02852102	0.093824394	-0.26882344	0.42274833	0.56396556	-0.04910888	0.0075746514	0.35216737	-0.25419995	0.38267335	-0.078949995	0.51889354	-0.32751766	-0.31896478	0.12226992	0.18229271	-0.22997959	0.41100276	-0.1601507	0.059488278	-0.13207386	0.2600773	0.3376113	-0.18200143	-0.19062248	0.18686008	-0.39399624	-0.14435695	0.067477785	0.18703495	-0.3149766	-0.4821857	-0.1129245	0.13237695	-0.13271904	-0.2217755	-0.116354674	0.16088793	-0.11310773	-0.14274858	-0.09937361	0.118496306	0.40809858	-0.112506166	0.13000518	-0.21604347	0.20761822	0.26873726	0.02565302	0.43556988	-0.2878116	-0.42583546	0.05306997	-0.15411164	-0.14609835	0.24342994	-0.2562578	-0.15056744	0.37173238	-0.12834348	0.019212767	-0.20366699	0.3625969	0.09899238	-0.28649592	-0.041546855	-0.28779396	-0.21844399	-0.16376728	-0.18343207	0.19003947	0.704365	0.43776444	0.23482004	-0.17796512	-0.059521288	-0.20636463	0.17994358	T-cells
T-CELLS	0.040263005	-0.0032465179	0.015158172	-0.06537548	-0.1131065	-0.032899298	-0.05746597	-0.033165567	0.01693018	-0.08185844	-0.0358049	-0.060860425	-0.030976199	0.1262179	0.05617065	0.08805732	-0.03608334	-0.053265292	-0.08199367	-0.032681294	0.038605634	-0.107640475	0.05983994	0.030208612	0.02800108	-0.158744	-0.12455713	0.055571776	0.046735775	-0.110805735	0.021719348	-0.008036891	0.14533007	0.114844546	-0.08564681	0.0840065	-0.06816022	0.06962052	0.0012953851	0.014836927	-0.08391715	-0.007160485	0.101289384	0.110210225	0.061514024	0.11616904	-0.040940713	-0.033143032	0.14566989	0.047083333	-0.01653492	-0.03363755	0.052664775	-0.019115131	-0.064590305	-0.052291144	-0.07938392	0.12259675	-0.10278391	0.03635325	-0.12812437	0.011667696	-0.09371052	0.04906757	-0.10019838	-0.12007401	-0.12903717	-0.10438256	-0.054766014	0.15669882	-0.07757344	-0.0876546	0.032649763	-0.04005758	0.18121856	0.06905344	-0.13228719	-0.062345292	0.06222586	0.114028685	-0.0173156	0.065041855	0.057218958	-0.12767197	0.0012512367	0.06777682	-0.0941033	0.059948403	-0.010330776	0.07022118	0.032590948	0.10487713	-0.108002834	0.04900581	-0.025456201	-0.025736945	-0.08808842	0.03084755	0.042250816	-0.010402923	-0.10432072	0.0025515647	-0.04293521	0.016346337	-0.08379858	-0.051577393	0.06650101	-0.22469486	0.046647716	-0.038067777	-0.009653329	0.013908295	0.046219096	-6.3032596e-05	0.05139243	0.1291716	-0.08083593	0.034900673	0.028777055	0.015519805	0.033473212	-0.068944246	0.170008	-0.13074543	-0.015737819	-0.01966345	-0.010424261	0.03290945	-0.014429787	0.17098671	-0.059611514	0.029283449	-0.071382515	-0.12748681	-0.0057877004	0.004634195	0.075970724	-0.018130947	-0.052855138	0.10118994	0.034340464	-0.095487684	0.0024127166	0.00772816	-0.024103343	-0.047700923	0.1273341	0.12451646	0.008086214	0.05507613	0.028238187	-0.0075370134	0.012824659	0.12376136	-0.053390533	0.15833001	0.028319076	0.032534838	-0.028739018	0.009761144	0.013621028	0.17071502	-0.0005603245	0.041472144	-0.06996226	0.1087886	-0.013178787	-0.12632509	0.06876451	-0.21312393	-0.15417337	-0.06490343	0.07962797	0.0032920402	0.0042790887	-0.0951608	-0.005537929	0.11542518	-0.145153	0.03973291	-0.017150223	-0.09634885	0.01848295	0.12253144	0.16420136	0.022694144	-0.12481406	-0.07783628	-0.019921094	0.04116827	-0.0062897797	-0.030063143	0.0912985	-0.04463326	-0.05654864	0.14263569	-0.01627584	-0.130492	0.025272435	0.0013245235	T-cells
T-cell	0.06743153	0.21697727	-0.12564246	-0.11217149	0.103802755	0.34130105	-0.044448644	0.33193764	-0.45457453	-0.27396208	0.17100708	-0.2816996	0.2596754	0.27006802	-0.1256297	0.15984836	-0.0281727	-0.45138744	-0.09258268	0.047726147	0.052301984	-0.4588461	-0.16574897	-0.101402625	0.024887143	-0.25070563	-0.30549714	-0.04654179	-0.0050245724	-0.34843642	0.16590329	-0.3886372	-0.252926	-0.01608207	-0.27414283	-0.50814694	0.10257616	-0.2777593	-0.086663075	-0.14738113	-0.21655951	0.25909263	0.089722894	-0.050410725	0.11126414	-0.7385165	-0.074446894	0.16753128	-0.19190939	0.15027632	0.16043983	0.32491672	0.26533327	0.0080694845	-0.17277071	0.08119904	0.187007	0.26975212	0.114042155	0.31293815	0.052271426	-0.2164636	0.274191	0.061853986	0.46588826	0.302193	0.5851285	0.19279972	0.15125306	0.061632402	-0.27164352	-0.015481317	-0.2860843	0.040952254	0.09885233	0.22278616	-0.45762408	0.11718321	-0.29896992	0.1834207	-0.11606638	0.40682173	0.05778016	0.047199186	-0.26439276	-0.024814364	-0.32290146	0.14045495	-0.03581908	-0.35910955	-0.04737096	0.00953367	0.41659772	0.099365465	0.29170325	0.046385363	0.050202165	0.11417468	0.13765486	-0.37194434	0.11823139	0.19685456	0.17529745	0.53323644	0.035405815	0.031285807	-0.39070666	0.15256873	-0.07792442	-0.16391526	0.1234766	-0.1586155	-0.096943244	-0.15536235	-0.2046095	-0.113411814	0.2672343	0.20261818	0.31957915	-0.3423367	-0.16740125	-0.114693135	0.09270555	-0.15545696	-0.21120034	0.22915731	0.3517329	-0.1680532	-0.2599119	-0.13885733	-0.065611914	0.3129158	0.19394436	0.09662997	-0.26905712	-0.24524187	-0.009865543	-0.23709376	-0.36215872	0.21319833	0.040573586	0.16350326	0.046732243	0.1946821	-0.009248121	-0.0041775224	0.08525076	-0.015853163	-0.25141087	0.084696956	0.10545499	-0.14592212	-0.17342535	0.22188255	0.087225094	0.062141564	-0.124469094	-0.54671216	-0.14373277	0.0037083896	-0.23411097	-0.0362913	-0.42995968	0.0936415	0.060696587	-0.019445036	-0.116810545	-0.21125264	0.11464686	0.09082715	0.13403288	-0.34122637	-0.17643484	-0.089233294	0.049665075	-0.10956987	-0.0581442	0.24204469	-0.053757265	-0.1417676	0.43170217	0.080656014	-0.056002855	-0.3969949	0.35242328	0.08633343	-0.31349468	-0.40976945	0.058928892	-0.3182715	-0.37294525	-0.2362498	0.23273419	0.47877055	0.05560469	0.039798383	-0.19336508	0.20414692	0.22211188	0.13998738	T-cells
t-cells	0.09176788	0.2877715	-0.09318713	0.035996452	0.29298404	0.24700803	-0.078288645	0.049513415	0.048890065	0.05913507	0.20830597	0.19649167	0.1082928	0.009442667	-0.27144897	0.13790163	-0.47630572	-0.29528686	-0.052379746	-0.18342423	-0.05648685	0.023706427	0.08629586	-0.10886117	0.015786048	-0.23874488	-0.28724974	0.05927825	0.084197134	-0.14337337	0.28246263	0.1443146	0.096068844	-0.17684434	-0.25383514	-0.21062076	0.03593885	-0.0046916385	-0.10483448	0.005972555	0.28912625	-0.32288808	-0.15935743	0.089331366	0.12678969	0.1502517	-0.24254178	-0.060583316	-0.00417205	0.09569848	-0.02033875	-0.050358966	-0.0023775038	0.09689015	0.06835054	0.16541512	0.028216267	0.12689412	0.035622243	0.102203816	-0.09447591	0.103813276	0.0067569814	0.24791212	0.0137094725	0.14216079	0.028904129	-0.07914616	0.064819716	-0.19154511	-0.33272007	-0.083946645	0.09489534	0.25175828	0.25828037	0.053701475	-0.37695667	0.034309644	0.11110572	0.01296291	0.07922846	-0.12244469	0.08775934	-0.0844069	-0.059593037	-0.0056982785	-0.0011612899	-0.08076428	-0.052056056	-0.13846718	0.23463477	0.421195	0.13050239	0.17749757	0.087643385	0.1258101	-0.19215974	0.02074888	-0.22356156	0.0007236432	-0.14752501	0.16459306	0.20581135	0.21569276	0.058569364	0.006139044	-0.097092465	0.09760154	0.11292134	-0.29310822	-0.053506285	0.087639466	0.31450793	0.21603556	0.06345685	0.123069875	-0.004620707	0.016107991	0.024002073	-0.22469084	-0.35629487	-0.033402357	0.074540965	-0.25449738	-0.28245208	0.025281971	0.13026185	0.098539606	-0.20379059	-0.12787336	-0.21240115	-0.12167132	0.23423107	0.07778261	-0.17656922	-0.05219749	0.15692966	-0.10306467	-0.28228506	0.17692234	0.00931673	0.35859516	-0.05034732	0.25146073	-0.16359662	-0.14491975	0.05746091	0.25736693	-0.16755128	0.01415274	0.30262288	0.22469121	0.053727537	0.26659036	-0.18756491	0.087279856	-0.24029568	-0.0702851	0.18335715	0.088216424	-0.022881214	-0.06175496	0.042311255	-0.055396713	0.06293295	-0.34353748	-0.037235714	0.06668023	0.047552384	-0.17708896	-0.03247272	-0.2035552	-0.5456635	-0.11409282	-0.20796286	0.18075976	-0.23351687	-0.10411681	-0.08659719	0.073481545	0.014909986	0.01158876	-0.02682228	-0.36163774	0.15275267	-0.06399154	-0.18167566	-0.19517037	-0.21577664	-0.1856755	-0.08961539	0.053796824	-0.03538784	0.30827236	0.14238666	0.28562278	0.005943028	0.29648823	-0.010372693	0.16812974	T-cells
T-Cell	-0.11089541	-0.04600958	-0.25122055	-0.02073092	0.26918268	0.40873328	-0.30610186	0.27749848	-0.07671502	-0.08832059	-0.087516345	0.07574549	0.26866996	0.6842686	0.026534608	-0.16365758	-0.20176747	-0.26683238	0.2039366	-0.54366124	0.008508688	-0.28253698	0.47409913	0.26214364	-0.12729423	-0.19964603	-0.05898634	0.12687428	-0.14188105	-0.14622317	0.267933	-0.3534462	0.052154437	0.47739965	-0.3779741	0.1188302	0.27868629	-0.60165375	-0.25262675	0.11036812	0.30319574	-0.48291615	-0.35272264	0.031447027	0.14505652	-0.6667706	-0.34681812	0.010320721	-0.0023852193	0.2611993	0.5431834	0.014148846	0.29587498	-0.42085594	0.24494623	-0.14993912	-0.06333323	0.10903485	-0.06764174	0.20432548	0.071072675	-0.26207674	0.0021854998	0.26649678	0.15920965	0.18924333	0.37350023	0.01663504	-0.5009999	0.3250267	0.31644845	-0.041658167	0.17041366	-0.17167549	0.50043404	0.06814806	-0.77638716	0.041798282	0.009365808	0.3795279	-0.3687931	0.1782691	0.45368445	-0.21657427	-0.38796046	-0.16408451	-0.19889963	0.5968579	-0.1621012	0.1773282	-0.3419858	0.34990367	0.14159325	0.2957833	-0.047559083	-0.41263682	0.2100183	-0.05738671	-0.16081555	-0.24481274	0.11474227	0.27536762	0.5394928	0.39744297	-0.15903217	0.17286345	0.05329725	-0.45331773	-0.14506987	-0.17110617	0.15727246	-0.08571082	-0.18177241	-0.21952981	0.26398006	-0.019359441	0.11335179	0.0712208	0.247037	-0.17176776	0.054513372	-0.23207109	0.025799144	-0.07898894	-0.52814317	0.3410599	0.6624842	-0.2315104	0.01767095	0.49474552	-0.1944823	0.1845668	-0.553461	0.47829697	-0.29683462	-0.32739642	0.035011932	0.13952477	-0.19402224	0.54960537	-0.21206605	-0.13440831	0.17850286	0.18855715	0.4905414	0.05110367	-0.15161002	0.1011307	-0.1520843	0.013590853	0.00092133344	0.27449423	-0.36403582	-0.2081542	-0.15037066	0.17833818	-0.19241512	-0.2217025	-0.20046632	0.12686409	-0.11229775	-0.15407811	-0.40467042	0.09765052	0.51227427	0.031464342	0.21131235	-0.40206045	0.2706406	0.18997124	0.1660621	0.41544914	-0.3467811	-0.29508385	0.0026409654	-0.21938075	-0.10770365	0.121811435	-0.03697528	-0.13966559	0.47401944	-0.3846584	0.25751275	-0.099387	0.3316336	-0.049007114	-0.066283226	0.015293705	-0.14347297	-0.35921976	-0.1243133	-0.28074056	0.2711393	0.44368702	0.2773639	0.076778926	-0.165825	-0.09955482	-0.25685188	0.16722809	T-cells
T-cells	0.16651513	0.15343364	0.012602452	-0.0033651022	0.26026022	0.57380444	-0.24228393	0.594348	-0.18903093	-0.11677433	-0.026551204	0.008135681	0.40574497	0.30264992	-0.27975035	0.3660188	0.05508135	-0.5661446	-0.17894651	0.19656807	0.14015967	-0.44127625	-0.27420336	-0.0728618	-0.017816687	-0.24968953	-0.3329094	-0.24105597	-0.20052667	-0.2644361	0.1773476	-0.058522537	-0.06934459	-0.3319606	0.08665328	-0.34111884	0.13496277	0.20444165	-0.20635916	-0.11927865	-0.118028305	0.1857761	0.13172267	0.06350961	0.28263983	-0.664372	-0.34098345	-0.3075174	-0.2678557	-0.092854954	-0.08794238	0.18342334	0.43461183	0.1031239	-0.04772826	0.18141586	0.27283105	0.45884493	-0.010446843	0.30802658	-0.13472901	-0.08071994	0.16616853	0.19848143	0.23274437	0.503827	0.27971327	0.26252672	0.20051244	-0.26497173	-0.20889977	-0.2613436	0.04607912	0.097979784	0.10305232	0.29837406	-0.43515337	0.050796404	-0.25553203	0.17364436	-0.16049002	0.3242182	0.10447338	0.04444896	-0.2062872	0.17832553	-0.19889098	-0.0027875907	-0.082878135	-0.45243454	-0.098000914	0.30871332	0.17490576	-0.035749562	0.3737012	-0.032638073	-0.008529037	0.32390153	0.06595101	-0.19758488	0.03174	0.2679649	0.1949677	0.50713617	0.06586486	0.15313226	-0.24280994	-0.10986344	-0.032475106	-0.051909298	0.029583465	-0.15518014	0.10986859	0.23722772	-0.33153605	-0.15510476	0.08114906	0.035064228	0.12970774	-0.22273406	-0.24354997	-0.12186415	-0.0158857	-0.043275468	-0.05216813	0.19559316	0.41605112	-0.15034157	-0.17938237	0.04092099	-0.008445587	0.3380427	0.32099202	0.050757013	0.1139869	-0.25783196	-0.197729	-0.09059138	-0.18270998	0.40408757	0.1504001	0.28637573	-0.13651684	0.33161324	0.00050718663	-0.067452684	-0.011546346	0.04674643	-0.40681472	0.05709151	0.04079397	-0.0901946	-0.1370128	0.27459496	0.036899433	-0.24076882	-0.11355494	-0.5183956	-0.021960557	0.11867991	-0.1821886	0.025365205	-0.25941464	0.15564632	0.23991118	-0.34948424	-0.055403315	-0.17962109	-0.059556674	0.19040716	-0.20216116	-0.21686544	-0.028298415	-0.20625968	-0.04461729	-0.012944363	-0.04197564	0.012420663	-0.29547915	0.16458865	0.37640494	-0.06932718	-0.24524045	-0.4064309	0.39463767	0.080720924	-0.4732912	-0.29642776	-0.16056319	-0.41637868	-0.3760674	-0.1095237	-0.0014742707	0.5824117	0.1992924	0.40401688	-0.19241291	0.27547982	0.16732317	-0.018726999	T-cells
T-CELL	0.17397602	0.08121212	0.07611381	-0.21899469	-0.32678613	-0.0350123	-0.1994702	0.012219434	-0.00093870243	-0.18942691	-0.101777926	0.0075618443	-0.14797437	0.21010602	-0.07559136	0.10678457	0.026649103	-0.10795559	-0.32627693	-0.044828936	0.08759937	-0.20632924	0.24299964	0.02577711	0.23295158	-0.29568186	-0.03428175	0.06257577	-0.0011128117	-0.16634348	0.06173467	-0.00880137	0.27969462	0.19095467	-0.31309193	0.11577355	-0.0966977	0.0682077	0.10703177	0.17591715	-0.09160586	0.08658813	0.10469215	0.24170165	0.06582598	0.069833115	-0.10978834	-0.059122417	0.2765151	0.09164251	-0.034472696	-0.05519873	0.06786319	-0.28958973	-0.2838362	-0.17630926	-0.25771263	0.12569013	-0.2714064	0.1514096	-0.14483239	-0.08108123	-0.09785621	0.042919718	-0.16809939	-0.1655166	-0.26730776	-0.30102143	-0.12650119	0.18536764	-0.10046028	-0.32040325	-0.12329125	0.030901914	0.2987216	0.16851823	-0.11930739	-0.07062338	0.109768525	-0.015875189	-0.07671456	0.18729067	0.14260231	-0.2460781	-0.16037485	0.13164769	-0.119282275	0.097641595	-0.067881405	-0.049896132	-0.020033926	0.09052731	-0.22910777	0.19189256	-0.14983252	-0.024721019	-0.22159688	0.09859095	0.11876809	0.069844574	-0.0132625345	0.04435491	0.0017158582	0.15064543	0.00818864	-0.017623432	0.15840243	-0.22044969	-0.0025016458	0.07499383	-0.053205125	-0.027790967	0.14233744	-0.046139073	-0.03861893	0.1654088	-0.058569748	-0.031727992	0.08660376	-0.02084837	0.21642669	-0.15217452	0.15488301	-0.24993695	0.0488908	-0.10456978	-0.02203293	0.07973438	-0.035644256	0.2459533	-0.18072687	0.10107413	-0.17335314	-0.24185522	-0.120569244	-0.042927507	0.065886214	-0.13086823	-0.25156188	0.034880538	0.010760739	-0.12923898	0.069365606	-0.12957117	-0.07037312	-0.18402359	0.13106425	0.07743711	-0.031430297	0.02189532	0.06673502	0.051797744	-0.049200635	0.15214546	-0.30554378	0.0970289	0.07950372	0.11351733	-0.035483193	0.09676717	-0.050178036	0.19720899	0.06747747	-0.069806114	-0.017525205	0.07058502	0.072860934	-0.26628682	0.1884721	-0.16582383	-0.31865403	-0.016336208	-0.08603712	-0.09279459	0.15753831	-0.012189653	-0.004593995	0.24915907	-0.11365106	-0.15401469	-0.040953793	-0.43242827	-0.08608304	-0.034525584	0.3445665	0.07884647	-0.4739684	-0.20072395	-0.1421633	-0.0985913	-0.19823714	-0.14402735	0.16938527	-0.1097618	-0.10145711	0.22893947	-0.06500506	-0.17068751	0.13285096	-0.19176742	T-cells
t-cell	-0.054325584	0.17523728	-0.3182212	0.030602556	-0.027630322	0.0019960068	-0.039868657	0.01483334	-0.21901843	-0.117217414	0.14316018	-0.33423877	0.3515269	0.21922965	-0.053651992	0.0645742	-0.09499699	-0.19709784	-0.019351738	0.02623043	0.15666735	-0.28675792	-0.007857682	-0.0403933	-0.043439835	-0.45931306	-0.20436496	0.13784918	0.030714089	-0.35771957	0.17988917	-0.06789736	-0.15395483	0.17007557	-0.34893075	-0.45907182	0.10266528	-0.27794448	-0.20753738	-0.01040912	0.11456397	-0.048009332	-0.11475322	-0.027631827	0.109001584	-0.31781486	0.027685003	0.1158796	-0.14952411	0.016213046	0.13772751	0.075786024	0.023359999	-0.18831794	-0.11240854	0.09625193	-0.0083110565	-0.043292265	0.07829813	0.05293746	0.32216662	-0.19069128	0.24350224	0.11872775	0.41623476	0.228987	0.20972376	0.20883738	0.1525945	0.18663737	-0.3718177	0.21245939	-0.057841074	0.11812276	0.18761311	0.11007664	-0.3643969	-0.040603727	-0.13598868	0.05201572	-0.084083565	0.33296803	0.22990732	-0.05405813	0.035097342	-0.01804044	-0.025087276	-0.08739813	-0.23914708	-0.2688839	-0.10327993	0.13182496	0.031401068	0.1768762	0.07189097	-0.0854617	0.041140944	-0.09951251	-0.07339416	-0.19122142	-0.12867908	0.14855292	0.034293983	0.1399555	0.11583026	0.093905896	-0.31905606	0.09498647	-0.0060503376	-0.02171949	0.22911064	0.09774974	-0.026008274	-0.056155156	0.11525778	-0.11685525	0.1659642	0.020479556	0.25881687	-0.13463219	-0.14767481	-0.040034164	0.332229	-0.0016227071	-0.06256797	0.1047623	0.11715513	-0.13893072	0.007938581	-0.22612758	-0.12720229	0.25020558	-0.046960995	0.16890088	-0.23884201	-0.24608423	-0.12191791	-0.20506649	-0.21760793	0.17116034	0.16756956	-0.15633872	-0.080783546	0.17172618	-0.008952937	0.07782943	-0.07024061	0.12931763	0.11146354	-0.08732187	0.036401164	0.09770854	-0.23287356	0.12333508	0.100692615	0.029391447	-0.17671667	-0.2895806	-0.103932425	-0.10252041	0.08113695	0.05522947	-0.386234	0.041335113	-0.05737513	0.09462085	0.15114751	-0.1962001	0.2843224	-0.17383884	0.09936205	-0.26033363	-0.20702869	0.0030443415	-0.16108882	-0.12233011	0.078978255	0.22794941	0.06749699	-0.05453847	0.23054382	-0.2002819	-0.13072541	-0.20363945	0.17427239	-0.1799796	-0.1406848	-0.41163567	0.020977397	-0.18103346	-0.04467809	-0.08239789	0.14122686	0.29085636	0.053213377	0.06537172	-0.04976836	0.18009573	0.21563902	-0.022502093	T-cells
erythroblast	-0.05046755	-0.32604453	-0.14611037	-0.19838353	-0.2374613	-0.32358038	-0.1372473	-0.3318984	-0.24083081	-0.51271725	-0.14249101	-0.19351672	0.4097689	-0.13060221	-0.06326042	0.019410087	-0.33859044	-0.19270983	-0.296887	0.034254707	0.062976114	-0.29108205	-0.48756808	0.014280605	0.0068802107	-0.18261854	-0.05169462	-0.03713352	-0.19396487	-0.26327083	0.106920764	0.2829052	-0.36178306	0.34946403	-0.32309285	-0.4294269	0.057366543	-0.1573849	-0.2236101	-0.018564507	0.0045376103	-0.45783263	0.04020667	-0.07198529	0.31608507	-0.008310164	0.2139581	-0.22485279	0.39062062	0.25731006	0.02297197	0.08185462	0.024461964	0.014976523	0.035633106	-0.018967962	0.27389163	-0.032957714	0.18347323	-0.29295403	-0.061838143	0.038602967	0.18475448	0.19890036	0.26952013	-0.15901406	0.31949472	-0.0970952	0.0004057316	-0.42877975	-0.41592985	-0.010704465	0.01620441	-0.097753964	0.49263602	0.065403834	-0.36183357	0.030579599	-0.22734195	-0.1432362	0.2572883	0.13546346	0.051527817	-0.18229921	0.18604027	0.24892323	0.05863009	0.031402986	0.3315406	0.12257553	0.0093738325	0.15960766	-0.08487114	0.15298781	0.07879279	-0.007896089	-0.017312298	-0.20199127	-0.1869826	-0.024752233	-0.09703526	0.29287925	-0.18404476	0.21211566	0.056330644	0.05427755	-0.09131671	0.32076868	0.39191422	-0.09725107	-0.21873517	-0.08634634	0.020575086	-0.17967087	0.046360087	-0.07093119	-0.1974043	0.08152981	0.14270204	-0.045748297	-0.14176951	0.19849874	0.05710558	-0.06338559	0.04733226	-0.061952356	0.0732723	0.3774578	0.18184122	-0.141538	-0.097480245	0.06972926	0.089359716	-0.10133819	-0.23837349	0.012481259	-0.19679712	-0.53437644	-0.08895307	-0.12341752	0.3178706	-0.021668553	-0.15795437	0.05926095	-0.17712317	0.10741372	-0.041046582	-0.08326635	0.2135371	-0.10900818	0.15819849	-0.29244342	-0.2646867	0.19197482	-0.2913918	0.02017789	-0.5830726	-0.024104394	0.2762596	0.067661956	0.024887223	-0.25393227	-0.10965812	-0.15190458	-0.421999	0.05691461	-0.017785458	0.20984109	-0.031836893	0.39794987	-0.12350995	-0.19253671	-0.19169755	0.050866935	-0.17376728	0.3876363	-0.09912957	0.24680407	-0.13774367	-0.08832692	0.41075078	-0.2842857	-0.33965486	-0.03727219	0.40868887	0.059468046	-0.3377671	-0.29085797	0.05224149	-0.022748837	0.32005578	-0.2324653	0.14971074	0.12090057	0.00045015564	1.3704447e-05	-0.23224069	0.30031362	-0.047543466	-0.12837146	Erythroblasts
Erythroblast	0.049642466	-0.20691907	-0.11640287	-0.1072988	-0.034454558	0.049572896	-0.05846567	-0.14227605	0.0754438	-0.29155102	-0.017447922	0.019459661	0.17227815	0.05895818	0.07819672	0.022902025	-0.25176618	-0.09882494	0.071849495	0.08809607	-0.029923795	-0.21017103	-0.051020373	0.16293919	-0.018100146	-0.18923299	0.0013704892	0.35904166	-0.1730177	-0.27508745	0.14625446	0.058602236	-0.1761149	0.30235726	-0.550956	-0.17658946	-0.03508739	-0.12454033	-0.14306715	-0.08266708	-0.013749725	-0.40645605	-0.07917956	-0.015529846	0.23211932	-0.09975406	-0.23017997	-0.039116725	0.0357853	0.19281918	0.04724044	0.027312003	0.053134255	-0.14490734	0.18286891	-0.15489033	-0.08724513	0.18948793	0.15990043	-0.09658028	-0.13429336	-0.08575728	-0.11156826	0.23484387	0.0974984	0.057623878	0.07537383	-0.116665676	-0.06749551	-0.21070366	-0.12552686	0.02167715	0.12690154	0.14208414	0.41605264	0.05177624	-0.35416517	0.044817768	-0.008772536	-0.059320062	0.11735941	0.11978824	0.21415804	-0.104797535	0.19764815	-0.047364	0.00066630554	0.0105333235	-0.12606974	0.011371057	0.120540716	0.40505704	0.06909868	0.008808014	-0.12354872	-0.064865276	-0.02465473	-0.082989655	-0.22750495	0.13183661	-0.1761413	0.14810652	0.0100823855	0.1089609	0.03936053	-0.057074454	0.021572813	0.16793776	0.1245448	-0.30449793	-0.08381365	0.026597403	0.052026156	0.1245369	0.118842214	-0.2587236	-0.05288855	-0.05281364	0.016457994	0.032662388	-0.15527928	0.080616765	0.17804085	-0.17999904	-0.16583015	0.20137838	0.10802944	-0.013647145	0.017435381	-0.011278727	-0.2864625	-0.013698498	0.032353524	0.18035197	-0.21244548	-0.044241402	-0.01687793	-0.039736323	-0.0584031	-0.047066484	-0.12127779	0.069357656	0.19166791	0.09467401	0.025779009	-0.031579796	-0.06577208	0.08817388	-0.117156245	-0.042081583	0.009673471	0.14004673	-0.1918866	-0.11024415	-0.22568259	0.0064938646	-0.5177223	0.02088615	-0.009341856	-0.03983728	0.13393079	-0.03224077	-0.023858257	0.1706889	-0.14704351	-0.0015276147	0.028588293	0.011679776	-0.00016974793	0.07518734	0.042732544	0.028689817	-0.3812314	-0.10666537	-0.12206578	0.12741864	0.038740847	0.20237514	-0.08314552	-0.16217399	0.10400662	-0.17865454	-0.089826755	-0.088723294	0.15988071	-0.09030184	-0.07186753	-0.13085294	0.011487843	-0.0242672	0.2232178	-0.1525842	0.23214091	0.15094562	0.05675473	0.23024519	-0.11595595	0.20134948	-0.04697151	0.099092945	Erythroblasts
ERYTHROBLASTS	0.09892361	0.063329056	0.14253588	-0.14976235	-0.36341524	-0.0979202	-0.22598222	-0.2283876	0.088874355	-0.14936137	-0.024133783	-0.047825426	-0.14582878	0.33571774	0.18782678	0.076647535	0.035153296	0.07845621	-0.15598322	-0.03441138	0.09134688	-0.1752467	0.30577838	0.02964138	0.16442247	-0.19449969	-0.20042206	0.10878824	0.08460677	-0.26165354	0.058429696	0.048683856	0.30265528	0.34897152	-0.24732032	0.15564743	-0.11342927	0.15197003	0.0864199	0.046983756	-0.14039578	0.08537747	0.18806675	0.20556386	-0.06352196	0.27609634	0.0018269137	-0.033823594	0.30067343	0.11185032	-0.20474538	0.014679072	0.09819287	-0.14139721	-0.38797313	-0.21914364	-0.34117043	0.24197675	-0.32984126	0.040775646	-0.27233183	0.015062715	-0.25802365	0.11900887	-0.2589914	-0.26972002	-0.2710525	-0.31509808	-0.20362687	0.26270634	-0.10284444	-0.2526782	0.05009318	0.05585527	0.29773444	0.2488896	-0.032937013	-0.22944696	0.16344638	0.048146646	-0.060714502	-0.015686812	0.16149841	-0.30888474	-0.0075023193	0.13315096	-0.18237236	0.11485352	-0.10696534	0.017865727	0.118462555	0.08311246	-0.43159315	0.24064888	-0.13990584	0.067761794	-0.31476322	0.01826877	0.11351703	-0.07080774	-0.31912646	0.00032109336	-0.046117935	0.08698185	0.00706912	-0.16444036	0.2436839	-0.25604448	0.077317074	0.10516933	0.03511843	0.0010315226	0.15573218	0.04349093	-0.06335763	0.2045782	-0.084622905	0.005656923	-0.18494166	0.055744294	0.28187728	-0.257001	0.065204054	-0.30173436	0.18749544	0.098166734	-0.046337426	0.17991972	-0.046287086	0.32105577	-0.119610935	0.11782702	-0.19620268	-0.25727144	-0.02344567	-0.040031184	0.05721277	-0.12547061	-0.2765508	0.13858841	0.06037703	-0.22167423	-0.06136212	-0.28031802	-0.07065083	-0.23969881	0.056671802	0.16476841	0.0893927	-0.03976792	0.12238426	0.006611636	-0.040131386	0.21939176	-0.23334035	0.16254218	0.13013946	0.15377234	0.0069806087	-0.10350054	0.035644833	0.21982588	0.13560978	0.09488207	-0.1682633	0.11341867	-0.009962107	-0.13645393	0.04369006	-0.28065187	-0.11041434	-0.11211311	0.08738961	-0.0031473779	0.33359337	-0.0754455	0.00069022906	0.21078055	-0.1594135	0.037964907	-0.07303172	-0.32335454	-0.09903454	0.047467005	0.29456094	-0.01769497	-0.22811446	-0.14603347	-0.1218747	-0.05919868	-0.095614806	-0.049766608	0.18757848	-0.29948634	-0.08360704	0.28449512	-0.018710317	-0.2415767	0.11370133	-0.21273226	Erythroblasts
erythroblasts	-0.19481587	-0.15666714	0.11255916	0.021066442	0.08127485	-0.20740798	0.071789026	0.107934974	0.0068617547	-0.3681972	-0.20419048	-0.10980068	0.61068887	-0.19288723	0.039257254	-0.0008256144	-0.3946952	-0.2158631	-0.16936982	0.31435573	0.08283817	-0.12800924	-0.34124961	0.29583824	-0.18297943	-0.2644152	0.01409289	0.0041727396	-0.22172241	-0.25598034	-0.011657974	0.093437515	-0.12022106	0.12390467	0.009025362	-0.4404973	0.17768387	0.12192332	-0.14422818	0.081686676	0.03830201	-0.41290644	-0.19129412	-0.08195806	0.39543805	0.071218215	0.24658093	-0.30322647	-0.021614084	0.12903868	-0.14319992	0.1767073	0.16239363	-0.042020872	0.10733917	-0.049318682	0.24450009	0.22720115	0.2867108	-0.29678872	-0.10593742	0.054886688	0.21633561	0.25173947	0.042974114	0.062136054	0.22296594	0.04502104	0.19028105	-0.47230044	-0.43094727	0.092932455	0.1847985	-0.04981361	0.4762671	0.08404633	-0.38082057	-0.08229915	-0.31258646	-0.16849735	0.20195837	0.1330243	0.12891051	-0.028597947	0.23167758	0.21529275	0.1483466	0.055467755	0.33685157	0.061165728	-0.009808332	0.05418798	-0.06864427	0.0924962	0.11651775	0.30689192	0.18619496	-0.22829334	0.15454817	-0.10181828	0.11306023	0.40830085	-0.14143614	0.27391317	0.0983105	-0.0051960484	-0.06482182	0.2528047	0.24255525	-0.03964279	-0.04211743	0.17078172	0.21276903	0.19492418	0.042910878	0.047619466	-0.15878345	0.13812886	0.086432494	0.13106047	-0.0975938	0.3926147	0.09371082	-0.008874876	-0.11842636	0.1397792	0.080642	0.06411005	0.14614636	-0.040044647	0.17610419	0.07985004	-0.008616299	-0.05099377	-0.24938565	0.021406436	-0.33832252	-0.43692702	-0.17878969	-0.16470814	0.33442512	-0.2240453	-0.18237801	0.29883415	-0.15072143	0.22023343	-0.019931938	0.061846368	0.07437262	-0.2068562	0.12857553	-0.22163206	-0.31225112	0.33068642	-0.3679714	-0.064683974	-0.54242134	0.19650148	0.2627378	-0.0021337892	-0.050366774	-0.023160372	-0.13523959	0.13292436	-0.3202417	-0.13605994	-0.10803701	0.1756282	0.0029680203	0.36578724	-0.22658165	-0.30824408	-0.035496876	-0.077210374	-0.19391547	0.5289903	-0.14833462	0.21815422	-0.27110717	0.094647914	0.46756423	-0.29449934	-0.30912593	0.023118168	0.23563527	0.16281402	-0.1399142	-0.366026	0.16196418	-0.074558534	0.07120221	-0.035342257	0.105271496	0.0892956	0.101390764	0.032853894	-0.31287137	0.389209	-0.008580871	-0.22150776	Erythroblasts
Erythroblasts	0.1820463	0.07423125	-0.034081157	0.09220393	0.28982106	0.18501471	0.044962145	0.14598332	0.2295746	-0.25458983	-0.16984382	-0.09511757	0.45856917	-0.08768805	-0.27298105	0.009934496	-0.23182616	-0.14293967	-0.25836805	-0.08991714	0.13729453	-0.22940677	-0.2933904	0.3058125	-0.046579946	-0.2114159	-0.1777414	0.22093922	-0.18894237	-0.35452718	0.02374264	0.19404085	0.03962362	0.21821149	-0.27568728	-0.16933735	0.09157745	-0.13763909	-0.073916644	0.018847397	0.07401868	-0.5532391	-0.14182688	0.12977454	0.12554243	-0.107858025	-0.18345925	-0.29905525	-0.45292127	-0.046303615	-0.179944	0.10959338	-0.105554245	0.095639266	0.20070362	-0.095673606	-0.09803891	0.29776344	0.36897144	0.1009814	-0.13940626	-0.15047829	0.020496324	0.33899412	-0.068755545	-0.23744455	0.17404076	-0.14625531	-0.014906252	-0.2058725	-0.25890008	0.23446979	0.4095396	0.12231255	0.3083423	0.043129038	-0.41850716	0.10586478	-0.11980003	-0.02377408	-0.051610593	-0.027849903	0.32163912	-0.16812198	0.24598956	0.20373972	-0.033599477	0.019033605	-0.035618156	0.0148974415	0.24987403	0.34909326	0.044985194	0.339318	-0.021558074	0.044939928	-0.0032662388	-0.25356916	-0.12715141	-0.005179882	-0.06976387	0.1683871	0.06498008	0.2940409	-0.12319874	0.006607537	0.094002426	-0.109423205	0.28233695	-0.20366712	0.09565756	0.0625728	0.23708393	0.24691024	0.13997148	-0.16870168	-0.2246361	0.076763056	0.17438996	0.14866829	0.08876603	0.3012669	0.07807498	-0.016296903	-0.32843193	0.19165975	0.099182665	0.1126902	0.058162212	0.25189126	0.14542933	0.06495074	-0.09150471	0.15296005	-0.11725732	0.045675732	-0.0019676462	-0.21259189	-0.18775266	-0.006381794	0.055232696	0.09246716	0.23666179	0.4037332	0.103622474	-0.06834173	0.05141833	0.35323632	-0.1533515	-0.11241002	-0.09297615	-0.09682777	0.035793487	0.18337423	-0.17630921	0.03805331	-0.21800575	0.13980922	-0.037100606	-0.06150356	0.046218134	-0.016794598	-0.09011884	0.15476954	0.13321951	-0.044150412	-0.12006218	0.059313618	-0.0018388779	0.124861	-0.04564907	0.09957419	-0.095108725	0.09763886	-0.14764725	0.3740169	-0.07786556	0.39037344	-0.20862667	0.03737255	0.21886882	-0.14848135	-0.15981196	-0.017355982	0.07627843	-0.19019285	-0.036934752	-0.16532698	-0.31650966	-0.03094408	0.035479136	-0.0005261603	0.17770183	0.08460599	0.1588142	0.034463346	-0.20774724	0.1414006	0.0911445	-0.11797317	Erythroblasts
satellite-cell	-0.2979728	0.2929316	-0.025189359	0.09491961	0.07857099	0.21207881	-0.015696688	0.008958716	0.17707108	-0.28820086	-0.14657268	-0.045143507	0.2180991	-0.09798058	-0.070583224	0.0325551	-0.10600375	-0.22237791	-0.102989495	0.15948436	-0.056400433	-0.26676992	-0.25324473	0.12533288	-0.30651784	-0.14505124	-0.089493796	0.06544534	-0.092888184	-0.09455601	-0.1511147	0.040145457	-0.43760613	0.28035536	-0.14684075	-0.40033686	0.102151774	0.026774382	-0.17593953	-0.31483173	0.24875721	-0.17793815	-0.10313219	-0.1189949	0.0064628976	0.056097127	-0.17450373	-0.2382112	-0.067983136	0.036947343	0.124060296	0.022473317	-0.044506233	0.23494083	0.0177845	-0.11311587	0.24710535	0.07874817	0.15573117	0.027613377	-0.09222797	-0.1558018	0.14650753	0.16994908	0.09742066	-0.028931297	-0.040316164	0.310549	0.07521218	0.051585615	-0.23865709	0.18712138	-0.076389536	-0.042647675	0.12105939	0.34323844	-0.4888776	0.2903982	0.35360137	0.069729604	-0.023896018	-0.23379336	0.056303892	-0.14611314	-0.077141404	0.40897512	0.07796725	-0.0985178	0.14010572	0.05473154	0.017491177	0.11222888	0.23669752	-0.015865758	-0.18233208	-0.014131767	-0.024777675	0.13642083	0.21291943	-0.023435904	-0.33423907	0.01678977	0.24860828	0.00722356	0.088847056	-0.0002503351	-0.05827808	0.14695129	0.24284361	-0.027809836	0.18192981	-0.027182842	0.08426579	-0.052794788	-0.07401242	-0.31629464	-0.06808191	0.1595808	0.17822115	-0.07579651	0.02368854	0.06258174	-0.0046288744	-0.3993116	0.10660298	0.25331286	0.024171619	0.27861598	0.093582414	-0.1332863	-0.2215658	0.21608064	0.1044833	0.059812516	0.004309879	-0.16042233	0.19793658	-0.14716884	-0.09634403	0.0788127	-0.065487616	0.15662514	-0.0036138385	0.078628875	0.02873121	0.0068829213	-0.0551401	0.13930912	-0.06894255	0.009825184	0.000105374245	0.10483802	-0.13391456	0.19750182	0.027134484	-0.24293365	-0.26743957	0.10657415	-0.00517157	0.062860884	-0.09849186	-0.16761301	0.0075547732	0.14065394	-0.09097063	0.056723766	0.07312557	-0.10535052	0.10379876	-0.17775144	0.022587184	0.24879555	-0.15182985	-0.022727853	-0.14384933	0.29581174	-0.14176705	-0.23777105	0.1964391	-0.036813814	-0.068632804	-0.37200743	-0.46672943	0.16338176	0.15778321	-0.12333478	-0.00446902	0.14185268	0.055680778	0.101385996	-0.091664605	0.04625936	0.18539435	0.20922332	0.17674236	-0.119458176	-0.07608578	0.101220086	-0.13001859	0.02711073	Satellite-cells
satellite-cells	0.08070422	0.08140298	-0.048257	0.038188808	0.011022486	0.01069896	-0.021055304	-0.019874651	0.057585083	-0.12716974	-0.09805575	-0.0377306	0.10982544	-0.03870571	-0.05772008	0.08866397	0.029541938	-0.067150384	-0.05240465	-0.0376351	0.0064143497	-0.03874158	-0.012814197	-0.07879909	-0.10489192	-0.081236385	-0.02072294	0.06704446	-0.080164395	0.012172286	0.0196865	-0.026805198	-0.006808774	0.1338748	-0.05115256	-0.07727198	0.018943368	-0.007335511	-0.114271864	-0.027566575	0.081094295	-0.056706592	-0.06556845	0.018300097	0.02262122	-0.004644983	0.02705858	-0.120278314	0.020931331	-0.05802235	0.025783317	0.020615496	-0.026704382	0.06209165	-0.004466589	0.036027987	0.043464765	-0.0875067	0.0023318394	0.045895915	-0.018955784	-0.07952681	-0.066901706	0.020678844	-0.053113654	-0.066697545	-0.03977582	0.0060745836	0.10384379	-0.049209725	0.031573106	-0.001964483	0.025672065	0.020953996	-0.073959865	-0.045245614	-0.1286225	0.099171855	0.07169114	0.009807201	-0.060879957	0.0022559022	0.01974793	-0.07568297	-0.009293408	0.03825388	0.0022566018	0.049901024	0.013117654	0.055816438	0.08945945	0.13034731	0.017065924	0.0153685585	0.005054855	0.08873332	0.038196385	-0.03419311	-0.030347927	0.06640702	-0.10519739	-0.016649319	-0.06649111	0.010384457	0.041127875	-0.03173497	-0.012900833	0.0014608672	0.043211658	-0.009328227	-0.016883466	-0.025848834	0.006497735	0.09763455	0.042782348	-0.099670134	0.057817698	0.021500127	0.04587632	-0.037886076	0.035820864	0.011507523	0.0012888741	-0.038273156	-0.03742298	0.013266388	0.029871684	0.06281386	-0.035838358	0.018992491	-0.06300213	-0.029320696	0.0033917166	0.15096898	-0.0045824735	-0.09532111	0.026816783	0.084526606	-0.019846441	-0.019273002	0.06001712	0.009016572	0.039720446	-0.009790821	0.04804245	0.059474878	0.042896397	0.08237525	0.09782145	-0.14146401	0.034748476	0.026839199	-0.0436492	0.043963913	0.10426607	0.04847497	-0.103031	0.050446063	0.093277045	0.10932683	-0.025465334	-0.056822	-0.067170165	0.027224343	0.010965482	-0.041286305	0.028840877	0.017350392	-0.021104297	0.0015647119	0.033433434	-0.11815782	-0.11316619	-0.120185636	-0.008465353	-0.026978444	-0.015764488	-0.034202587	-0.024894934	0.039385743	-0.10559582	-0.040271696	-0.0876245	-0.007813788	0.10690076	0.034891795	-0.0018541181	-0.030324278	-0.0022548367	0.03512249	0.12287248	0.036292832	0.012688001	0.06318717	0.04051257	-0.11026085	-0.05343711	0.10385112	-0.004988311	0.038924824	Satellite-cells
T-helper-cells	0.03869287	0.04304262	-0.11317826	0.095557295	0.078529835	0.2975037	-0.10710971	0.0835386	0.1798972	-0.15831937	-0.058805596	-0.059605937	0.21824326	-0.0028077727	-0.071879864	0.03275346	0.11210107	-0.17607284	0.04704182	0.15160978	0.11100337	-0.1821813	0.045437768	0.1426682	-0.00952903	-0.14504468	-0.14855704	-0.11708391	-0.20304374	-0.08097877	0.17524245	0.012196699	0.022606432	-0.2265446	-0.026358988	-0.22160238	-0.069251664	-0.022092625	-0.04475319	0.03094771	0.0026809552	-0.120702535	-0.031132817	-0.019758208	0.11123253	-0.4147043	-0.27606928	-0.26018554	-0.10929936	0.004008425	0.022922637	-0.008752777	0.080294676	0.09097027	0.085277244	0.019596277	0.05570709	0.12538587	0.061998703	0.13519461	0.05397131	-0.14487582	0.13545932	0.08756777	0.13107078	0.16429529	0.041583136	-0.108280934	0.13603702	0.18340017	-0.09954978	0.022608297	-0.01689095	-0.10183625	0.058179177	0.0474046	-0.2531413	0.030489815	0.15676141	0.07963866	-0.031249873	0.012447886	0.035020337	-0.09527909	-0.025119653	0.059456624	-0.024553444	0.01697341	-0.027104467	-0.0633085	0.02043898	0.17339283	0.19744019	0.06246726	0.25072703	0.075516485	-0.26477906	0.123933256	-0.01541894	0.011675278	0.07923548	0.058265243	0.11059528	0.14747223	0.015998319	0.0031835167	-0.02190956	-0.069733985	0.022689348	-0.114475496	-0.050945427	-0.1149777	-0.025356364	-0.03155258	0.0704374	-0.04312946	0.16634278	-0.0603898	0.05762932	-0.029146185	-0.23386487	0.20469129	-0.026223132	-0.14409593	-0.11569971	0.17387679	0.15354785	0.027568452	-0.08637355	-0.19668521	-0.121302694	0.120104454	0.13777696	0.00013594137	-0.07910992	-0.0014587491	0.012592244	0.053341515	-0.08062155	0.13541356	0.13635829	0.1499492	-0.0629514	0.098051526	-0.027663693	0.12903164	0.06402808	0.08624559	-0.035014044	0.08726914	0.12732325	0.060362197	-0.020906892	0.16197531	-0.037142344	0.0037904882	0.025738847	-0.38094082	-0.032973025	0.15125799	-0.056934573	-0.005438741	0.006656537	-0.0018346686	0.070649154	-0.0047816564	0.03242786	-0.095581755	-0.01976591	0.053600006	-0.11360048	0.026422948	-0.11151085	-0.0817634	-0.06348407	-0.08784921	-0.07137874	0.005248455	-0.12523015	-0.02800532	0.08184405	-0.13670175	-0.042780574	-0.20217146	0.04876928	0.07292187	-0.2456038	-0.07954519	0.022166466	-0.085759565	-0.07431598	-0.06762243	0.0032791528	0.32470974	0.1704335	0.06457149	-0.08972769	0.17488237	0.012880165	-0.079182915	T-helper-cells
T-helper-cell	-0.09525804	0.21877581	-0.2715142	-0.008079659	-0.05227752	0.363748	-0.1760545	0.21375722	-0.2735629	-0.07482209	-0.0018548691	-0.1396666	0.07615146	0.17396621	-0.1226295	0.08451046	0.02347692	-0.456841	-0.3122271	0.08273469	0.15204369	-0.14532173	-0.2789004	-0.04270672	-0.12229692	-0.19085212	-0.120858945	0.14590271	-0.25271857	-0.50924516	0.24076857	-0.21610014	-0.17238879	0.049468167	-0.39620754	-0.5457785	0.10939397	-0.3821608	0.059558064	-0.0577305	-0.02481072	0.07061599	0.11442762	-0.026512673	0.061522797	-0.49741462	-0.22368148	-0.06296457	-0.059613843	-0.12433629	-0.037110943	0.07195786	0.124433905	0.1197885	-0.0059230775	-0.006428103	-0.13656396	-0.030406862	0.09046641	0.2091777	-0.10602777	-0.19949436	0.18354467	-0.11620142	0.56272364	0.069251895	0.072836265	0.23199286	0.23655255	0.13910843	-0.38519388	0.014471233	-0.014374697	0.063874856	0.28310168	0.2001145	-0.5755321	-0.03549736	0.14649688	0.22989346	-0.10993062	0.13937013	-0.19477655	-0.016691742	-0.33101374	-0.05909088	-0.13445473	0.024904657	-0.33831412	-0.16318628	0.17931509	0.21389085	0.5037899	0.20306188	0.29697365	0.011912703	-0.021999996	0.31613404	-0.08228846	-0.2425699	-0.017602649	0.14059879	0.12151694	0.2830504	0.11896627	0.09346334	-0.23548116	-0.032685496	-0.015150781	-0.22581378	0.12391427	-0.14987543	-0.10565165	0.100497596	-0.14460611	-0.37259462	0.2581519	0.15599918	0.3968949	-0.27096626	-0.009842276	0.027913673	0.13845506	-0.26106745	-0.18495841	0.2840919	0.21142924	-0.149982	-0.3201629	-0.042120855	0.009920503	0.21938461	0.29203573	0.07310582	-0.20267297	-0.09212232	0.110711046	-0.04282496	-0.098795146	0.35168618	-0.2626193	0.30268493	0.088865876	0.13641271	0.0026941611	-0.03045231	-0.04326564	0.08962957	-0.32277846	-0.07244804	0.13802528	0.21125297	-0.124302864	0.34548217	0.23090318	0.13158347	-0.1828064	-0.5245399	-0.23495421	0.0089952005	-0.21510838	-0.15460427	-0.18053575	0.034476727	-0.022827446	-0.023295427	0.023430914	-0.14040664	0.026570346	0.028832443	0.18378793	-0.071272425	-0.118442476	-0.016889103	0.12670028	-0.1848566	0.037738957	0.23877817	0.05658204	-0.11499374	0.17206615	0.05917028	-0.19749337	-0.14072028	0.42881602	0.16073845	-0.24868183	-0.3259828	0.12836446	-0.37027952	0.0073485603	-0.28959334	0.36447167	0.3786337	0.08419709	-0.13551594	-0.31437528	0.11791229	0.045802075	0.4030451	T-helper-cells
enterocyte	0.2350344	-0.10508539	-0.40707323	0.053470664	0.048460867	0.40046895	0.0034572787	-0.46422398	-0.023323752	-0.1886215	-0.18976428	0.19628063	-0.019207371	-0.00019413931	0.26552367	0.19879307	-0.00014629157	-0.23502168	0.15469387	0.019651137	0.051892936	-0.12854035	-0.0066005755	0.34241784	0.2383642	0.056215934	0.115079	-0.0426479	-0.18618885	-0.076189645	0.3572439	0.061458316	-0.031205146	0.3635254	0.019385044	-0.48348498	-0.021144178	-0.17897533	-0.18490651	-0.55857843	0.07325501	-0.6220573	0.25459495	-0.27238774	0.070818014	0.20944501	-0.100822665	-0.13390413	-0.12584703	-0.01616043	0.047629047	-0.4872368	-0.360095	-0.16852103	-0.4768831	-0.14338255	0.2477005	0.14984378	-0.033533555	0.54155326	0.53096	0.048952963	-0.09916536	-0.35935327	0.5345827	-0.311931	0.031601623	0.4490208	-0.11910841	-0.2661498	-0.26144177	-0.4542103	-0.16595241	-0.18038315	0.46984717	-0.4109872	0.09450302	-0.027202018	-0.17850235	-0.2933115	0.23478907	-0.102029055	0.1854256	-0.1210742	-0.15463364	0.04361154	-0.19077173	-0.18600078	-0.042672157	0.17724472	0.109846815	0.031855077	0.2896052	-0.04620142	0.08400742	-0.25065807	-0.03396459	0.06746263	-0.11012847	-0.15831503	-0.3994293	0.09466775	-0.16476059	0.027248666	-0.06839074	0.13751344	-0.30958283	0.14936177	0.12685592	0.3311859	-0.073488824	0.17539239	0.03905427	0.17543729	0.23011619	-0.38353312	-0.018383795	-0.054070614	0.0036317753	0.051229205	-0.022055024	0.16487291	0.17697684	-0.2632912	0.07662907	0.16475199	0.24347524	0.14194414	-0.23654585	-0.18741415	0.32685006	0.07375053	-0.0131416395	0.21705095	-0.26651904	-0.25907812	-0.39334038	-0.31558436	0.31822857	-0.24544029	0.34424108	0.14367592	-0.014205245	-0.25021797	0.37674364	0.26657957	-0.050503325	0.059874672	0.3187679	0.17942022	-0.22351047	0.056171726	-0.49691445	-0.09860831	-0.025758909	-0.06762288	-0.41088694	-0.3179274	0.16747358	0.08734327	-0.17146677	-0.27552193	0.3948857	0.0014235711	-0.3282357	0.17625485	-0.21089433	0.17415577	0.26454213	-0.022487856	0.035510007	-0.2815762	-0.28676823	0.011590247	-0.33318797	0.063076474	0.16257809	-0.18496929	-0.116437785	-0.20449127	0.06535154	-0.1465808	0.062033154	-0.071340635	-0.21562018	0.20220755	-0.23281743	-0.19545315	0.20518404	0.015565787	0.17375505	0.012095873	0.15372078	0.13756624	-0.33944285	0.03483101	0.031131912	0.2120403	-0.28656578	0.060061425	Enterocytes
enterocytes	0.26695874	-0.025544278	-0.39723817	0.19390215	0.2998191	0.31850213	-0.1828965	0.042555038	0.036920555	-0.20648126	-0.15199676	0.23093289	0.34170446	-0.018323146	-0.0041998313	0.18227185	-0.21417502	-0.29871374	0.26747987	0.25355828	0.15359296	-0.07015305	-0.098872244	0.36512038	0.23310824	-0.09251698	0.05058818	-0.13259499	-0.07262392	0.014213557	0.351364	0.07334123	0.20840646	0.16955954	0.2687522	-0.41289586	0.12766203	-0.0036840024	-0.046687897	-0.38861388	0.12637022	-0.4498293	0.006607435	-0.2429754	-0.049338587	0.32638413	-0.10731634	-0.18575932	-0.30649453	-0.23594297	-0.042508934	-0.16998887	-0.11756348	-0.18960895	-0.38182697	0.043311357	0.28879714	0.04280248	-0.02839778	0.31055358	0.27466118	-0.03150018	-0.05747842	-0.24981207	0.09854389	-0.35882494	0.0989861	0.4207989	0.10330682	-0.14650537	-0.16616875	-0.32198003	-0.074875206	0.054610293	0.6591951	-0.19712655	-0.036722478	0.048814002	-0.10148064	-0.124512464	0.19324379	-0.10645725	0.341861	-0.17183547	0.08421551	0.19111472	-0.103142396	0.005601416	-0.06386077	0.044980258	0.00454663	-0.0010006827	0.3098126	-0.19396466	0.06322029	-0.18415843	0.11627866	0.24942103	-0.102089405	0.1743937	-0.21011558	-0.12753317	-0.052677453	0.34123495	-0.027970899	0.20146114	-0.23362571	0.16693676	0.23820955	0.34938866	0.10145145	0.1272933	0.26608405	0.36809966	0.16532296	-0.11449577	-0.16511625	-0.30304834	0.108216226	0.21432267	0.03824184	0.14488928	0.23139365	-0.099054836	0.012669324	0.25780344	0.34970757	0.065524735	-0.1416266	-0.045809716	0.08596939	0.012328386	0.13452564	-0.07874907	0.041489277	-0.09763612	-0.5752771	-0.30786452	0.22623022	-0.16220082	0.24813749	-0.2200918	-0.0598408	-0.3028353	0.2582407	0.19915715	0.0011838074	0.21000953	0.26537472	-0.14801888	-0.25169745	0.21483843	-0.39607692	-0.19099474	-0.027176393	-0.086770184	-0.39883992	-0.33819726	0.28694096	0.029813403	-0.22005565	-0.20473544	0.4587049	0.018908974	-0.18159373	-0.27315432	-0.34720495	0.35544756	0.17294034	0.034946445	0.008166755	-0.19217749	-0.12732147	-0.25119674	-0.14765042	0.0979427	0.021020643	-0.09192412	0.06993974	0.001467795	0.0052362224	-0.09568971	-0.041574273	-0.24367402	-0.19138007	0.18819827	-0.33808166	-0.3930472	0.21049446	0.16192923	0.19157714	-0.060345545	0.14968686	-0.0048775505	0.0040092235	0.307129	-0.07762472	0.31827697	0.012186389	-0.023854233	Enterocytes
Enterocyte	0.1124817	-0.21800487	-0.6038721	0.056529853	-0.0022441002	0.5422864	-0.11752293	-0.123712674	0.16855176	-0.2315217	-0.024577135	-0.10238145	0.15870391	-0.13668579	0.32707712	0.2022681	0.16254568	-0.028285256	0.22664432	0.0101391645	0.26771113	-0.20413639	0.31860194	0.21258315	0.16239803	-0.018502036	0.06332476	0.428612	-0.1970724	-0.23018332	0.29362002	-0.19745322	-0.16546138	0.5359549	-0.44177982	-0.29892832	-0.22140321	-0.34649113	-0.10765975	-0.30282503	0.024291666	-0.5334098	0.21119374	0.07376005	-0.2353964	-0.11998504	-0.18371241	-0.29632482	0.08489747	0.2124708	0.042891014	-0.18300588	-0.22601405	-0.14079517	-0.08326028	-0.21897872	0.2188131	0.010470945	-0.02701738	0.24059144	0.047269173	-0.2691806	-0.18088831	-0.03810782	0.3601151	-0.15316057	-0.009850355	0.4235707	-0.3769818	-0.007730664	-0.1296172	-0.10983625	0.36022964	-0.32039896	0.4882773	-0.22272693	0.10848406	0.2636807	-0.07316671	-0.10263584	0.12766793	-0.19490367	0.3772867	-0.18701567	-0.019425353	0.15396778	0.1350299	-0.24986413	-0.15947714	0.17801389	0.26688626	-0.05287524	0.29028752	0.025523722	-0.07357527	-0.17133138	0.067812026	-0.12946941	-0.22079767	-0.0023557432	-0.13692875	0.34647402	-0.03230505	0.09218264	-0.08047708	0.20279557	-0.017427357	-0.04053163	0.05688998	0.10504813	-0.17247511	0.26884034	-0.11367809	0.074330844	-0.121134974	-0.56462276	0.11507913	-0.0767945	-0.047491957	-0.025805278	0.24276696	0.0039550443	0.102534525	-0.19129092	-0.024506189	0.21337053	0.24573748	0.16858548	-0.12682511	0.32554454	0.03981152	0.16808233	-0.2638438	0.4143149	-0.18917476	-0.1803717	0.07051013	-0.068166494	0.20878927	-0.21270598	-0.22972122	0.06399313	0.052739203	-0.2981311	0.36018416	0.18865693	-0.4947872	0.122166164	0.05921145	0.21619377	-0.040701263	0.31485242	-0.37100962	-0.20659803	-0.06478978	0.2375807	-0.39552498	-0.29663923	-0.005810062	-0.22101974	-0.31934467	-0.22414723	0.09349597	-0.072292134	-0.085791655	0.21457198	-0.17139415	0.11607524	0.51967365	0.20281893	-0.013069178	0.084618285	-0.43444055	-0.16140507	-0.23333883	-0.02383502	0.16169162	0.020246346	-0.22054343	-0.38955587	-0.10826231	-0.33625486	-0.05318671	-0.20123498	0.0044303727	0.1308525	-0.26523948	0.11754938	0.017155338	0.13024437	0.10544186	0.13618432	0.2544927	0.18857454	0.05344146	0.3079372	-0.005977344	0.028481819	-0.057443444	-0.06740703	Enterocytes
Enterocytes	0.20360287	0.0026750148	-0.5200059	0.20077728	0.5300995	0.15569091	-0.15205304	0.04657603	0.27331826	-0.14196733	-0.3849657	0.06746783	0.43684652	-0.0042587826	-0.008314814	0.03973902	-0.061090115	-0.2222628	0.14084552	0.10287505	0.3072984	-0.028412966	-0.10244578	0.39236444	0.055801224	-0.119799085	-0.16405353	0.10516756	-0.08311817	0.053035714	0.13162419	0.17693488	0.29934973	0.059908845	-0.067201525	-0.04934799	0.040846743	-0.144124	0.29721913	-0.08944829	0.39166117	-0.65778136	-0.117538944	0.16790947	0.008756229	0.067621656	-0.24959202	-0.30840817	-0.49013802	-0.22255869	-0.056912456	-0.079476275	-0.07547699	-0.37175748	0.05218824	-0.17134257	0.20282623	0.13032341	0.083943896	0.24189678	0.12663284	-0.28763297	-0.1277545	-0.0064813537	-0.004325326	-0.17523207	-0.02296565	0.09007898	0.11829888	-0.05866059	-0.07792539	-0.24099696	0.2575836	-0.1082637	0.33143756	-0.25185576	-0.3082659	0.16156645	-0.025694048	-0.08129116	-0.023040658	-0.07452811	0.33671406	-0.1431491	0.28273752	0.24895716	-0.0397381	0.27319765	-0.4521106	0.16769902	0.3524615	0.36146152	0.27129146	-0.01525095	-0.080165654	-0.2442054	-0.017722007	0.1197671	-0.21047218	0.104856834	-0.22999844	-0.008024398	-0.1014399	0.26134923	0.025194576	0.332271	-0.14711799	-0.025635997	-0.06786536	0.32866636	0.031338878	0.23026063	0.25397173	0.25898197	0.16591655	-0.3612057	-0.29292557	-0.114430636	0.003828798	0.13256727	0.24007578	0.03581183	0.20175567	0.06456638	-0.056159966	0.4060793	0.08524334	0.20376691	-0.006477901	0.23836139	0.05011739	0.22274572	0.043846853	0.013471978	0.042407308	-0.024365012	-0.3490339	-0.2561454	-0.070151	-0.042861655	-0.043741543	-0.05662511	0.0113579715	-0.27767384	0.11972955	0.2517624	0.010514118	0.32653093	0.10539966	-0.3773304	-0.30038694	0.35131773	-0.13153356	0.08200712	-0.18293871	0.031740773	-0.21665348	-0.05309415	-0.03105275	-0.16106963	-0.27424198	-0.007192686	0.23875087	0.33713174	0.08038315	-0.15199675	-0.3703692	0.14382565	0.073915236	-0.18616705	0.048331667	0.31186196	-0.017198412	-0.45625195	-0.16512658	-0.014671579	-0.04383934	0.10609582	-0.28286695	0.29894045	-0.00041088893	-0.2620489	0.12179744	-0.26489052	-0.23417212	0.093935035	0.039394747	-0.29863694	-0.1540959	-0.17577201	0.1283878	-0.025018705	0.20279992	-0.17576486	0.26855573	-0.104314476	-0.21408558	0.17037904	-0.07316454	-0.012860558	Enterocytes
ionocyte	-0.119415365	0.14029	-0.39200428	-0.15439148	0.0029318833	0.08736291	-0.036132783	-0.372084	0.30322236	-0.26364243	0.11865348	-0.30184323	0.14245623	-0.195123	0.112645045	0.18906656	-0.24498782	-0.14961253	-0.32583806	-0.13224815	-0.20119591	-0.19104278	-0.2157487	-0.015497163	-0.08528119	-0.20269538	0.021981869	0.33609194	-0.0073163314	0.008283104	0.4840287	0.018994806	-0.18379135	0.43942627	-0.32873198	-0.46145707	0.06576902	-0.11671431	0.22517209	-0.37269306	-0.088605694	-0.42789835	0.05750223	-0.27068177	0.06453545	0.00023106372	0.007477163	-0.13526975	0.05285857	-0.21864519	-0.03823613	-0.03680024	-0.251659	0.40203422	0.10909438	-0.34325823	0.32539284	-0.016046146	-0.1578854	-0.13585413	-0.017450927	-0.058071796	0.4257238	-0.002259192	-0.11516645	0.022074243	0.11605198	-0.027138483	-0.2893702	-0.25030094	-0.04586872	0.0919466	0.18562222	-0.17842087	0.090627946	-0.1377929	-0.151881	0.1829523	0.12773141	-0.041228738	0.18221326	-0.3503829	-0.24141765	-0.27221093	-0.14886713	-0.025942504	-0.2550634	-0.12076694	-0.27658615	0.042778336	0.17727657	0.2937784	0.20236242	0.06745559	-0.10047349	-0.47773376	0.034284867	0.07333167	0.18744107	0.40301287	0.02802942	-0.0801089	-0.3458664	0.4065745	-0.27813673	0.03046909	-0.16859011	0.27639598	0.12135805	0.08038694	-0.036220167	0.28072813	0.1144889	-0.31735536	0.034392517	-0.5431419	-0.13141286	0.18764508	0.087731145	-0.044921756	0.1258264	-0.085957766	-0.009681323	-0.26939684	-0.1519496	0.45207447	-0.054431796	0.34284505	0.22781502	-0.36894435	0.19117787	-0.07129018	0.1797947	-0.022709917	-0.10741311	-0.07955034	0.024178185	-0.23520645	-0.220087	0.14678583	-0.06468432	-0.07042962	0.1631916	0.18005896	-0.0046901717	0.024818258	0.0758687	0.16716202	0.42583635	0.044996805	0.15714145	0.1154258	-0.18035841	0.072627746	0.08124275	-0.11718884	-0.4899833	-0.2504602	-0.22404797	0.029286325	0.057740588	-0.38211986	0.14454687	-0.043463673	-0.1400996	0.06690633	-0.31050715	0.21082395	0.10398605	-0.051118597	0.20212914	-0.26028484	0.1401299	-0.23674725	-0.0231018	0.064961776	-0.37659773	-0.14518456	-0.11094171	0.19185199	-0.19425738	-0.12681004	-0.39085147	0.15367782	0.071839206	-0.13506186	-0.15831737	-0.35244358	0.55081534	0.08716653	0.18875816	0.056682963	0.38677981	0.35765287	0.28744122	0.006450338	-0.1053591	0.15906367	0.16066092	0.08283782	Ionocytes
Ionocytes	0.16036296	-0.030770186	-0.11124531	0.016158734	0.17487708	-0.063217476	-0.024866143	-0.013278345	0.05731577	-0.08600733	-0.060452953	0.0038963796	0.058765173	-0.1189626	0.016505016	0.054470774	-0.09725013	-0.15426834	-0.12138686	-0.07147113	-0.10459999	-0.062843	0.041841295	0.01877512	-0.01666306	-0.09611055	-0.030432772	0.07537162	-0.017821569	-0.025176315	0.007639869	0.08209639	-0.008927206	0.07991941	-0.07726326	-0.0536625	0.05272795	-0.008835253	0.04439192	0.06560968	0.106354445	-0.12389989	0.077369064	0.026921716	0.038978893	0.053423118	-0.068001024	-0.08314535	-0.052122254	0.009290687	0.051411644	-0.10149251	-0.0137384385	0.002138414	0.13511227	0.1432889	0.055557027	-0.040070675	0.020630848	-0.07543147	-0.010796913	-0.003943578	-0.013647513	0.09872306	0.01735234	-0.07128694	0.08136384	-0.04003094	-0.012128411	-0.10464731	-0.028518459	0.019842872	0.19902293	0.011373158	-0.020554962	-0.0060363365	-0.1870369	0.17923105	0.0035189188	-0.031963553	-0.006279318	-0.09083895	-0.048173033	-0.06461143	0.023122199	-0.03840494	-0.07902685	0.024650712	-0.08567781	0.048996255	0.078437716	0.12094675	0.08222135	-0.05912572	-0.04843935	-0.10132257	0.039655995	-0.04943307	-0.023487069	0.18316135	-0.09088956	0.02293304	0.0077654673	0.07822707	-0.06473332	-0.066150606	-0.045397684	0.0646956	0.019999303	-0.04874449	0.05948025	0.11206366	0.008341446	0.074020945	0.07827742	-0.15836293	-0.048844263	-0.033935655	-0.04526602	-0.08245505	0.043770384	0.07511834	0.0998247	-0.053449314	-0.12556094	0.15124603	0.025029285	0.065091394	-0.072907686	0.030654516	-0.06230849	0.016490133	0.017177438	0.09184151	-0.032894965	-0.041898157	0.059381302	-0.14203854	-0.078860536	0.10018029	-0.04937185	0.018758109	-0.04220928	0.16290702	0.081286624	0.012696675	0.026056673	0.053612445	0.03844485	-0.058214385	0.044420537	0.17468403	-0.0800847	-0.0567069	0.12418013	-0.025020638	-0.117832854	0.009703449	-0.019833744	0.060110815	-0.007304979	-0.026923936	0.051964823	-0.11096364	0.04606964	-0.038586892	-0.019154334	0.048644196	0.02223977	-0.15597813	0.014927519	-0.00996193	-0.015455675	-0.12376936	-0.06098504	-0.022267405	-0.10883636	0.06639505	0.012887545	-0.016218852	-0.027717847	0.03960376	-0.05032748	0.012760418	0.058187723	0.043493543	0.107743725	-0.059368193	0.07365667	-0.0048428965	0.060553614	-0.03565828	0.10842004	0.09788552	0.08399071	-0.044899482	0.010936878	0.026160223	0.047347065	0.09227482	Ionocytes
Ionocyte	0.035379957	0.07346781	-0.092533335	0.053158402	6.620516e-05	-0.065164186	-0.030095577	0.018647667	0.017200653	-0.05569131	-0.020322865	-0.003246955	0.009787012	-0.032941293	0.06282065	0.032031722	-0.1078234	-0.017405286	-0.044172715	-0.035485633	-0.107710294	-0.013661905	0.05841142	-0.015777536	-0.039669815	-0.09896349	0.02149247	0.061815035	0.03432178	-0.018901678	0.085185334	0.07694621	-0.027726147	0.018721173	-0.009298607	-0.07491619	0.04736556	-0.051914256	-0.09351192	-0.06700871	0.025689768	-0.10413259	0.031645663	-0.032213885	0.020128641	0.054102477	0.043396983	-0.010335707	0.0697072	-0.075430684	0.06040782	-0.02935401	-0.053079665	0.022768218	0.04970262	-0.0743574	-2.0466978e-05	-4.3038453e-05	-0.05808988	-0.045180794	0.010538389	0.07437878	-0.013009374	0.017168276	-0.07433709	-0.038831126	-0.005503319	0.013868064	-0.07965973	0.024679754	-0.0135085825	0.022547299	0.04662652	-0.02549237	-0.017006435	-0.028643891	-0.114023045	0.023356033	0.009656075	-0.015395409	-0.0009997146	-0.0806984	-0.058476932	-0.011941568	0.036524024	0.06615803	-0.015517108	0.05692039	-0.05708928	0.07747531	-0.0054222276	0.07675695	0.03370096	-0.033766277	-0.025434874	0.02887012	0.023237979	-0.0016806205	-0.006535707	0.051852655	0.022539113	0.07686506	0.014830489	0.03012868	-0.035891883	0.039213665	-0.064693816	-0.009746865	0.07232631	0.028085936	-0.025488237	0.031866886	0.028802197	0.053766463	0.052419495	-0.10114248	-0.051037885	-0.012379678	0.042714033	0.021484945	0.050831873	-0.0134638725	0.050035324	-0.06818703	-0.045701865	0.014050631	0.022544544	0.05816736	0.021001931	0.021279018	-0.041448236	-0.005427283	-0.022632396	0.013273846	0.007611676	-0.03615097	0.04765741	-0.046449494	0.0060513825	0.00049027463	-0.033195674	-0.041150954	0.025391735	-0.0070382506	0.025902849	0.042113565	0.04775692	0.07351626	0.07876408	-0.05705428	0.041336033	-0.0056145075	-0.044896625	0.013645081	0.012898132	0.0010801273	-0.08407303	-0.06116449	-0.017701147	-0.017644798	0.033829767	-0.028083714	-0.024398938	0.022580849	0.017024342	0.062455345	-0.004859146	0.08245047	0.0022680731	-0.060237624	0.046989307	0.007352825	-0.110859916	0.050680842	-0.059527025	0.008241482	-0.046923257	0.057571344	0.007493401	0.103331186	-0.06079662	-0.06752936	-0.112885185	0.0032000255	0.01940516	0.0625204	0.06506318	-0.03829197	-0.0140856635	0.050484218	0.08001149	-0.009930417	0.013040955	0.06005555	-0.030012827	-0.00017189178	-0.017496167	0.040199284	-0.0012328291	0.00014787912	Ionocytes
ionocytes	0.14828095	0.06522452	-0.6913572	-0.043320086	-0.054519154	-0.036985446	-0.25941065	0.023748582	0.050469894	0.19368052	-0.039605312	-0.049291484	0.20671177	-0.17908005	-0.018012363	0.26867202	-0.3818682	-0.17091788	-0.19258723	-0.1262961	-0.18658319	-0.12320217	0.025724728	-0.17574428	-0.0023626809	-0.22109255	0.27528006	0.34540737	0.05294389	-0.010127745	0.5892814	-0.12083448	-0.07307256	0.19547842	0.0042477283	-0.48928374	0.033353895	0.023771212	0.1198342	-0.49162993	0.15684392	-0.63410825	0.06206888	-0.1744639	0.10029577	0.0360873	0.28021237	-0.08830839	-0.037515536	-0.43797404	0.17052881	-0.06748933	-0.049901035	0.17060906	0.20591763	0.08706375	0.29958335	-0.07239607	-0.11785961	-0.33858234	0.04234066	0.29346737	0.3156728	0.03870682	-0.1636496	-0.095607415	0.1845494	0.008381726	-0.3706203	-0.3136418	-0.016217425	-0.015743578	0.399463	-0.28754154	0.019719131	0.11784187	-0.19079289	0.46695986	0.09388782	0.023379752	0.4112001	-0.2928888	-0.29774585	-0.13040005	0.14578423	0.07034392	-0.17133173	-0.102707915	-0.42709455	0.14436997	0.020176396	0.37903008	0.13707963	-0.08416766	0.046240095	-0.114564456	0.2436582	0.11604126	0.11585209	0.57669383	-0.02055685	-0.20844856	-0.1751635	0.106906705	-0.03702275	-0.06891707	-0.07709027	-0.00044347285	0.058100905	0.41989043	-0.011300494	0.32330245	0.2836609	-0.30989513	-0.06844548	-0.31507096	-0.21588777	-0.19497345	-0.21619315	0.14252654	0.34577355	0.09482811	0.20209834	-0.23729672	-0.36227158	0.25292802	0.40220413	0.43588844	0.16205955	-0.14205508	0.2603906	-0.15609227	0.16036229	-0.069708765	-0.052010376	-0.08642202	-0.076012485	-0.122816406	-0.13858415	0.3057922	0.1754744	-0.18105485	0.09403302	-0.111904785	-0.13363504	0.13962147	0.23877576	0.3014678	0.28360718	-0.067463875	0.3448339	0.10150629	-0.33951238	0.06988012	0.38806465	-0.044282336	-0.4994843	-0.346324	0.05319475	-0.23304765	-0.1172284	-0.10589747	0.46016452	0.09290722	-0.40943617	-0.08317074	-0.42725128	0.32616687	0.22233543	-0.17435813	0.15484068	-0.2739462	-0.091571875	-0.5459363	0.055364203	0.17993285	-0.05699583	-0.17092541	-0.10992476	0.33520132	-0.15304787	-0.14836863	-0.29204267	0.16987275	-0.2055583	0.47749084	0.081542656	-0.75924385	0.39647186	-0.31992465	0.3899318	-0.0044493387	0.12344973	0.13930202	0.09324532	0.27778262	-0.077177934	0.14828303	0.28922912	-0.037045885	Ionocytes
luteal-cell	0.0022811089	-0.00074330263	-0.037511073	0.09292002	0.0346782	0.08450181	-0.012872704	-0.03818202	0.01174079	-0.078937985	-0.01952048	0.002216407	-0.009174338	0.039546095	-0.031034146	0.043681562	-0.05449476	-0.018268645	-0.05951429	-0.020342082	0.016571118	0.009116311	0.01577783	-0.00093965966	0.0876528	-0.03643943	0.0008658442	0.08182658	-0.09530441	-0.033716865	-0.041060608	0.019629112	0.005179371	0.051138796	-0.07189231	-0.06827086	0.06590701	-0.013537481	0.008370169	-0.107149094	0.132576	-0.10182692	-0.00345095	0.03400104	0.0416453	0.02673681	0.027893001	-0.007062572	0.00041327375	-0.037680645	-0.092006445	-0.023715211	-0.011265621	0.07112645	-0.05468499	0.09314106	0.044263553	0.08113192	0.025131373	0.05952709	-0.074190915	-0.016592935	0.032526318	0.06162213	0.004876988	0.009086554	0.0012530412	-0.011370895	0.0808311	-0.058886405	-0.017429389	-0.0072555603	-0.012110687	0.007778132	0.017369164	-0.03714042	-0.09949991	0.11359709	0.008170651	0.0018937333	0.07008969	-0.11477631	0.024764502	-0.010167403	-0.0076405825	0.03043913	-0.018849384	-0.028297294	0.01473415	0.024456423	0.057739895	-0.056306995	-0.020826126	-0.01637125	0.07466907	0.02371105	-0.09563128	0.09464073	-0.07009649	0.011779402	-3.1617965e-05	-0.05926245	-0.061383262	0.119219266	-0.00017152316	-0.031483274	0.049885564	0.0043313843	0.027161386	0.094760396	0.0056331507	0.017198939	-0.025960965	0.034606107	-0.0125226285	-0.027732508	-0.0077918605	-0.053505234	-0.011423993	0.0042461003	0.05059624	-0.034605145	-0.011716645	-0.06268075	-0.046055723	0.07586643	0.022677032	0.15060495	0.0023493117	-0.122172594	0.03759443	-0.059886698	0.1294767	0.029830584	-0.0026441845	-0.0357173	0.04270081	0.06933215	-0.0015248419	-0.08191781	0.08662352	0.11695786	0.0037921574	0.0068699303	0.024709573	0.0011243995	-0.004760337	-0.09635175	0.008370035	-0.085852616	-0.107524246	-0.033158567	-0.04810965	-0.10480032	0.0014592091	-0.036912967	-0.007267117	0.019385735	-0.083233885	-0.013154333	0.021132605	-0.045793045	0.072731726	-0.0037785168	-0.04437029	0.0036179028	-0.012972089	0.021640517	0.07702702	0.060391705	0.023047775	0.022619905	-0.10866844	-0.14077212	0.033251606	0.04869199	-0.034302086	-0.09729875	-0.039706364	-0.00068443257	-0.042847235	-0.081899084	-0.027068263	-0.07316655	0.011043839	0.012832825	-0.011330496	0.011459377	0.018977117	-0.08271131	-0.007829562	-0.0007128316	0.039228532	0.012642243	0.012475501	-0.012207871	-0.0005133033	0.0047473647	0.0871415	-0.044827677	Luteal-cells
Crypt-cell	-0.0010216619	0.02975246	-0.0116226785	-0.009555728	-0.022224665	0.02283128	-0.010092042	-0.00015731365	0.032874748	-0.03024845	0.012272949	-0.01406063	0.033158783	0.0147190355	0.009381823	0.00444399	0.028999615	-0.029429398	-0.0024508343	-0.02215005	-0.012738568	-0.014080649	-0.02084934	-0.0042352597	-0.01727447	-0.004152369	-0.000758811	0.012233914	-0.025719792	-0.004555717	0.007847883	0.006785899	-0.01313682	0.022959158	-0.0021773463	-0.022101512	-0.0073455474	-0.024755867	-0.0058514317	-0.010913281	-0.02401706	-0.031707473	-0.008148693	-0.0017287303	0.0076708193	-0.0130995605	0.001912209	-0.027193554	-0.01218828	-0.009363685	-0.014955608	-0.025156843	-0.0017436214	-0.0022240854	0.0067501413	-0.017180271	0.020496208	-0.028558215	0.004356108	-0.0091553405	0.034475558	-0.023093987	0.026469342	-0.00578295	0.024593422	0.008821267	-0.018073311	0.00033761718	0.008797063	-0.015735475	0.013479779	0.047569018	-0.017504493	-0.00035998115	-0.0069877207	0.028492521	0.009823768	-0.0058489023	0.004259615	-0.008011412	0.0031569973	0.01017593	0.015453511	-0.006215694	0.012953602	0.039567742	0.011012891	0.010027529	0.011554687	-0.018252175	-0.022061244	0.01767398	0.018475102	0.015234075	0.033225663	-0.01381479	-0.014619218	-0.018164575	-0.012678377	-0.0007080962	-0.0068782354	0.0020020138	-0.016545398	0.010203797	0.0039052165	0.029936463	-0.022865262	-0.010403081	-0.02322569	0.009633735	0.007897049	0.001133721	0.016825935	0.024168517	0.013647936	-0.013008179	0.016993592	-0.007325924	-0.023218522	-0.004682022	-0.027958719	-0.026946846	0.01604514	-0.006786077	0.000929227	0.02424802	-0.012016608	0.012654635	0.0054104873	0.004570891	0.00014397409	0.015120789	0.011213825	0.04173364	-0.023394741	-0.028685063	-0.02239258	-0.021904968	0.018116582	-0.019463753	-0.03244535	-0.014878642	0.02055577	-0.02062261	-0.02086245	0.008691568	-0.0050432235	0.010310716	0.0050009843	0.008918217	0.024702473	0.009353634	0.0035128747	0.007847464	-0.00044410443	-0.011325924	-0.04749159	-0.026287224	0.020777868	-0.0021203437	0.021479214	0.0064664916	-0.010002044	0.00080247805	-0.0019028243	-0.010202895	-0.009841869	0.004986005	-0.010497358	-0.006633728	-0.018195096	-0.0050229966	-0.014612267	-0.009170774	-0.02722311	0.012058443	0.0055384776	-0.0046694777	0.0133069595	-0.017198136	-0.0064374185	0.0018411058	-0.021284185	-0.011374469	-0.00546407	-0.005962417	0.021965658	-0.007205129	-0.01734422	0.0065994547	0.022702131	0.009772308	0.005964886	-0.018065702	-0.0015654536	-0.03245853	0.01703626	0.0061412468	-0.018064257	0.005080574	Crypt-cells
crypt-cell	0.13531502	0.14869983	-0.35611492	-0.062173486	-0.052281804	0.23587736	0.07351544	-0.11566475	0.20883544	-0.089079484	-0.15174223	0.036798224	0.15385629	-0.088179775	-0.06341397	-0.0317467	0.062283155	0.0026656855	0.15590002	0.0021081115	0.031326126	-0.19206233	-0.13443775	0.08696272	-0.10679784	-0.053093415	-0.17207377	0.08160244	-0.112156294	-0.25565293	0.070457436	-0.13182026	0.0268162	0.1533926	-0.12853323	-0.23243318	-0.15262198	0.053094607	-0.06201812	-0.2920602	-0.1591482	-0.22074877	0.080367625	0.056084275	-0.10510144	-0.10757976	-0.07379951	-0.19897877	-0.12091396	0.04351575	0.17673032	0.00154185	-0.03430806	0.012896571	-0.19600837	-0.2121476	0.12819475	-0.10996743	0.024590487	0.15795884	0.14420918	-0.045625772	0.10100314	-0.15659843	0.13817237	0.058599345	-0.06468609	-0.023165572	0.2554873	-0.09544157	-0.07171624	0.15642938	-0.17590292	0.0015333768	0.1635334	-0.035424758	0.14198726	0.10046225	0.098938495	-0.23906453	0.15502751	-0.19872873	0.032557026	-0.0021143158	0.18763998	0.26265562	0.12202912	-0.058028143	0.0877418	-0.09399865	0.03662243	0.12050193	0.17784533	-0.038637746	-0.010159527	-0.06000224	-0.08398505	0.009056843	-0.057785373	-0.047517497	-0.09198842	-0.066731974	0.021697823	-0.039077405	0.1075336	0.0907787	-0.11799634	0.15026608	0.04509994	0.12500307	-0.0016673323	0.018876	0.16331945	0.19093835	-0.029065507	-0.16920324	-0.011130055	0.008369684	0.013424324	-0.058060598	0.07444877	0.19339924	0.028879672	-0.08779566	0.0027672532	0.30191365	0.09641929	0.2495222	-0.07060767	0.12803295	-0.08964701	0.009732922	0.070357755	0.052906305	0.05438781	-0.07528313	-0.14913593	-0.21520972	-0.015247994	-0.07421367	-0.01899474	-0.050565615	-0.06115434	-0.198481	0.16464399	0.09889177	-0.074315764	0.22418527	0.18432541	0.0051439637	0.133775	0.1546409	-0.19552387	0.013793504	0.06749051	-0.16168708	-0.20562126	-0.24410772	0.034980856	0.06190425	-0.042733103	-0.048198834	-0.08405569	0.022819499	-0.04342866	-0.06100437	-0.078337684	0.2085985	0.08374726	-0.17958803	0.070960425	-0.11477775	-0.04834203	-0.20540062	-0.2756198	0.1106802	0.08332583	-0.2425267	-0.020163838	-0.122675605	0.021192377	-0.18639863	-0.22652696	-0.13334152	0.081858754	0.07444946	-0.04466569	-0.08192849	-0.032266017	0.16289134	-0.11036936	-0.0408946	0.10379241	0.15120092	-0.20061632	-0.091025755	-0.14146423	0.09236697	-0.06818042	0.07882308	Crypt-cells
Leydig-cells	-0.037668914	0.07750061	-0.13618377	0.14643055	-0.01679575	0.11237975	-0.043229327	-0.07454233	0.019288115	-0.1339766	-0.026504513	0.015176784	0.04053684	-0.028672049	0.10803509	0.03617723	-0.070819415	-0.030626198	-0.07205406	-0.030892987	-0.039509088	-0.01990665	0.023592224	-0.0054470664	0.05127945	-0.04202635	-0.1411989	0.10459337	-0.1755958	-0.110094756	0.10530029	-0.0657159	-0.10909665	0.01412133	-0.09527437	-0.20842241	-0.015128186	-0.06882363	0.16023166	-0.05966209	-0.044966016	-0.072929524	0.084467106	0.04082809	-0.009389949	-0.04346143	0.044993103	-0.07779259	0.0707298	-0.016111845	0.06054204	-0.16224058	-0.03358457	0.110447496	-0.031151898	-0.0039574904	0.078267954	-0.009387522	-0.006420302	0.10524888	-0.0022081449	0.051074635	0.046754237	-0.014568669	-0.04957342	-0.029589085	-0.076938465	0.061801888	-0.015184972	-0.04036929	-0.09315548	0.030014802	-0.0011168423	0.02703781	0.051058568	-0.09528979	-0.008942296	0.003002897	0.04289466	-0.04495956	0.10108493	-0.05250865	0.03676334	-0.0128636295	0.12479349	0.03791708	0.093659654	0.07026122	-0.08095846	-0.0016954399	-0.00308442	0.19690971	0.0051871156	-0.0040233657	-0.05932831	0.074423224	0.11095189	-0.016895946	0.031909525	0.078170076	-0.065087765	0.007961489	-0.08697781	0.08775138	-0.0033769095	0.06299053	0.005166809	0.03802003	0.16003944	-0.013294771	0.048444647	0.031155957	0.11851345	-0.05488039	0.03247635	0.026667252	0.030339925	0.035592295	-0.08442973	-0.09137592	0.038114425	0.026120452	-0.001675637	-0.04416521	-0.054321628	0.09080913	0.031404234	0.058804534	0.08766491	-0.18811618	-0.118517525	0.09261706	0.104249306	0.030810857	0.07037208	-0.10136369	0.0031306462	-0.058695342	0.0036281436	-0.022558574	-0.124270625	-0.057804693	0.0555895	-0.0019208128	-0.011514274	0.08897058	0.07033434	0.07511787	0.06274006	-0.11663665	0.026419515	0.14240557	-0.034418795	0.0074605523	0.01095918	-0.025658641	-0.14197522	0.024205677	0.1078796	0.019231994	0.0041123214	-0.020177672	-0.065992326	-0.039991036	0.031623874	-0.009379223	-0.031694215	0.016897403	-0.099853456	-0.073168635	-0.0829782	-0.13374616	0.06391372	-0.04032598	-0.055786803	0.02264411	0.044864558	0.035440486	-0.026277894	0.11742693	-0.036603734	-0.107675485	-0.18015568	-0.038870186	0.0014350499	0.07162184	0.026380122	-0.1597866	0.050761204	0.034551572	0.08629202	-0.015524512	0.046251874	0.0033069712	-0.020097366	0.05776903	-0.040755242	0.006202451	-0.022895494	-0.04274245	Leydig-cells
Leydig-cell	-0.18406928	0.30975562	-0.4624582	0.3180784	0.34210825	-0.029532183	-0.14803953	-0.29017025	0.06681331	-0.11208241	-0.28431547	-0.04692252	0.28607947	-0.1297725	0.3746973	-0.42445818	-0.01959055	-0.124589056	-0.11697893	0.12980074	0.14192681	-0.007373407	-0.13486063	-0.021308457	0.20620048	0.1558277	-0.029787987	0.32744277	-0.08127737	0.20010377	0.1578601	-0.08394753	-0.3639175	0.34049398	0.06084396	-0.27746275	-0.0145507	-0.26795796	-0.039676324	-0.345988	0.018578792	0.09491456	0.056943886	-0.044370003	-0.0791231	-0.03007637	0.028661769	0.13799015	-0.0742702	-0.17403674	0.15063344	-0.40870056	0.090072766	-0.015069703	0.09194728	-0.08870937	0.21309981	0.21881166	-0.04739478	0.027252154	-0.13767122	-0.12562022	0.27887118	-0.23443024	0.09576447	-0.030705502	-0.01905075	-0.22134544	-0.34391063	-0.03302556	-0.18161736	0.1865425	-0.057035614	0.16901898	0.06747565	-0.07932094	-0.121622264	0.0014149928	-0.13294385	0.076725684	0.05969226	0.28286	0.14701597	0.06601189	0.4397725	0.1845447	0.11069304	0.20683247	0.02705983	-0.029190905	-0.23030978	0.504781	0.028009178	0.2378366	-0.30112123	0.087575845	-0.13262616	-0.11942901	-0.08834201	0.26531845	-0.26099485	-0.21116091	-0.31837052	0.07450282	-0.068849735	0.15079784	0.15612845	0.16951159	0.04597485	-0.05421416	-0.11421838	-0.098292895	0.21445529	0.3220484	-0.20689489	-0.12295073	0.12028785	0.059749823	0.05525153	-0.19833662	-0.070765354	-0.07336088	0.105800726	-0.030341795	-0.24188334	0.115952246	0.26756507	0.11077662	0.3292914	-0.38824442	-0.30635402	0.06683674	-0.0013033384	0.20683639	0.09800334	-0.32111114	0.13186586	-0.052767858	-0.21610121	-0.18142934	-0.21574956	-0.12523757	-0.078138776	0.041242566	-0.025260784	-0.1508622	0.000498637	0.21205024	0.26440126	-0.28123376	-0.09679973	0.3367638	0.02943383	-0.25569895	-0.0009323231	0.009658114	-0.35385668	-0.2676098	-0.042206872	0.015092526	0.19563456	-0.26509956	-0.2566462	0.101657294	0.048051354	0.0880719	0.24721989	-0.11165089	-0.10685416	-0.2438763	-0.24306333	-0.3483507	-0.13106345	0.072301045	-0.4168468	0.20644262	-0.011294906	-0.09234913	-0.16910544	-0.0802146	-0.15603964	0.011294302	-0.32345355	-0.13650054	-0.2324826	-0.043363433	0.33374083	-0.4510992	0.14266674	0.18095994	0.25605813	0.00804708	0.08474307	-0.08443272	0.022617498	-0.021975053	-0.14742325	0.06313206	0.06970744	-0.09685231	Leydig-cells
Hepatoblast	-0.012927847	-0.021765044	-0.05054718	0.010147358	0.005202013	0.04147459	0.010037113	0.0036327476	-0.011595677	-0.03720617	-0.021420512	0.03844381	0.07329794	0.021363243	0.0041788067	0.01867395	-0.021043645	-0.06502762	-0.0059960783	-0.015330616	-0.019428456	-0.044443157	-0.024606267	0.05287491	0.024211135	0.014769015	0.0153696295	0.024649518	-0.0363699	0.018016515	0.0017080649	0.043200843	-0.011062154	0.05951515	-0.040628906	-0.020030266	0.032116663	-0.06104605	0.019708078	0.024541738	0.023817753	-0.08207085	-0.006794201	0.058460418	-0.0011996075	-0.008203445	-0.00769075	-0.014839417	-0.0043106545	0.004076498	0.028232634	0.015955454	-0.028205145	0.007022949	0.0013137767	-0.019704578	0.023594575	0.005030691	0.017138638	-0.055043973	0.01510716	-0.08694165	0.03950185	0.015003695	-0.032363478	0.0016942917	0.011422158	-0.043857463	-0.067761004	-0.007891904	0.02884731	0.09550276	0.059836496	-0.013306561	0.122956626	0.04430789	-0.042295467	0.028886994	0.00390637	-0.0012693595	-0.01874309	0.0063442388	0.014001407	-0.033109356	0.019231107	-0.044816114	-0.001621593	-0.049043544	0.0014830354	0.030560141	-0.05759068	0.0023806405	0.050735004	0.04124414	-0.029037535	-0.04459406	0.018197544	-0.014582062	-0.030726505	0.020753467	0.015748216	0.03193566	0.012350209	-0.0009383913	-0.039464638	0.035357814	0.01965212	-0.036602464	0.020844124	0.0034397556	-0.023802545	0.004474319	0.031641874	0.032384064	-0.027371176	-0.026607847	0.002304213	0.0034066932	0.022886861	0.07709752	-0.033626992	-0.043803487	-0.0035467192	-0.029464768	-0.054730933	0.014652619	0.035110626	-0.012061013	-0.0045528356	0.1006779	-0.028435657	-0.02552753	-0.042866163	0.0332815	0.03181296	-0.012575764	0.026563516	0.01141601	-0.07233462	-0.0231853	0.0018498244	0.026502024	0.02750493	-0.005479298	0.07180241	0.037691765	0.028713899	0.024300702	0.049804784	0.034665722	0.008712984	0.021360146	-0.03328647	-0.06715495	-0.05580932	-0.041824225	-0.073486686	0.0011197407	-0.026630789	0.03201807	0.018597078	0.012902682	-0.014420436	-0.008864394	0.04095308	-0.030925272	0.015355734	0.0031442344	0.08235176	-0.050505955	0.0064398753	0.0069077583	-0.075311914	-0.0019586603	-0.01731297	0.05089944	0.01829142	-0.028819341	-0.015726624	-0.014182597	0.03972991	-0.063137755	-0.010010408	0.01978275	0.0055103125	0.019116528	0.030449245	-0.020259278	-0.052684728	-0.026202105	-0.018226737	-0.001957797	0.04000877	0.027037695	0.006364607	-0.025985273	-0.03660193	0.016412826	0.06366542	0.007694065	Hepatoblasts
hepatoblast	0.040603925	0.045963094	-0.26160252	-0.1013825	-0.0757132	0.4705648	-0.14725776	-0.08040124	-0.1519771	-0.547724	-0.09622199	-0.11684077	0.2806664	-0.24961239	-0.12863939	-0.0272931	-0.28867045	-0.33921608	-0.11141221	0.1096417	0.011328364	-0.09063364	-0.11459694	-0.017863644	0.01345981	-0.07778388	-0.34688142	0.45505148	-0.09193772	0.09404614	-0.015472388	-0.2554192	-0.46731535	0.6121747	-0.10539717	-0.57274985	-0.12070255	-0.39930332	0.067298345	-0.34292752	0.11099438	-0.5449504	0.2575323	0.09257818	-0.090101935	0.15255727	-0.06993045	-0.37846336	0.04387278	0.043887075	-0.022704763	0.121468775	-0.22929074	-0.03020177	0.0083601205	-0.12694822	0.23228379	-0.2131472	0.38322812	-0.027501576	0.20234427	-0.015752828	0.31165862	0.1935562	0.037172258	-0.27026436	-0.09325478	-0.057115328	-0.06345207	-0.085441805	-0.5015839	0.32333964	0.1718928	-0.082518116	0.26727593	0.05650602	0.119136	0.14331517	0.3666946	-0.11863006	0.18670917	-0.22551578	0.07054364	-0.26048362	0.14705652	0.06632537	-0.08440679	-0.20570728	0.095848694	-0.01676288	0.21461852	0.17319788	0.20795096	-0.016250959	0.10570706	-0.36757827	0.26607382	-0.042530037	0.032168824	0.33483258	-0.05047999	0.20067953	-0.20188501	0.06933778	-0.16303006	-0.14736317	-0.04634513	0.33455843	0.073458545	-0.008121343	-0.31490052	0.2540692	0.26238808	0.06584023	-0.07919906	-0.46160126	-0.034397963	0.0469893	0.21908656	0.19277158	-0.12979648	0.17719626	0.097837135	-0.1823391	-0.033725865	0.14366074	-0.28774473	0.15094149	0.16875923	-0.23052049	0.18150428	0.15654132	0.09627803	-0.006025557	-0.27079764	-0.19639315	-0.33471847	-0.28740045	-0.17414388	0.078968845	-0.10533736	0.2807466	-0.15857154	0.12496931	-0.10882213	-0.21641108	0.40428996	0.3652347	0.070044026	0.042553157	0.1903206	-0.024593754	-0.2799026	0.12533478	-0.09601213	0.0067014736	-0.43368536	0.1414259	-0.28815758	0.29942578	0.37758988	-0.388067	-0.3122733	-0.063832045	-0.17044052	-0.14026137	0.1048628	0.031036694	0.1146938	-0.149684	-0.1549749	0.06885164	-0.009929902	-0.1306124	-0.21567434	0.20996524	-0.4745607	-0.34290427	-0.099990025	0.17537358	-0.03711872	-0.5228794	-0.7095593	0.19555296	-0.090965874	0.0146679375	0.028871667	-0.27006793	0.094679035	-0.2616231	0.15909196	-0.038129102	0.75274605	0.021060014	-0.14694072	-0.23853122	-0.19263138	0.30560368	0.10316047	-0.108115844	Hepatoblasts
hepatoblasts	-0.03139757	-0.07750241	-0.16678144	0.0036113982	0.189983	0.26969686	-0.042699087	0.34659687	-0.151893	-0.44911283	-0.096973896	0.021481212	0.39239123	-0.28251216	-0.10067774	0.19513448	-0.23874457	-0.4055607	0.023908662	0.2700166	0.09108399	0.15642221	-0.5102477	0.43348047	0.050039317	-0.17292944	-0.35016713	0.1114251	-0.04054089	-0.018648636	-0.035682965	-0.34886044	-0.23836108	0.38428965	0.21069273	-0.46642244	0.20162256	-0.177758	0.04171966	-0.21127774	0.017740197	-0.5598881	0.02437207	0.0076093026	0.060709193	0.46880051	0.2825044	-0.4870364	-0.11974893	-0.05435704	-0.012832231	0.09092559	-0.15353465	-0.0838794	-0.13990532	-0.16535659	0.10474764	-0.011666294	0.2964014	-0.034571014	-0.073058985	-0.09305471	0.21028575	0.20383674	0.021031838	-0.15777552	0.28866443	0.021590794	0.06967221	0.02567435	-0.43684712	0.2136208	0.4665712	-0.013664044	0.60179174	0.029022414	0.0894982	0.2876827	0.1373824	-0.13202493	0.2674902	-0.08223905	-0.08700834	-0.48056573	0.34055135	0.06217902	0.09431244	-0.15613821	0.20043106	-0.007745667	-0.025236782	0.36845592	0.22895783	-0.081843406	0.12199663	-0.054099847	0.24685723	-0.2483463	0.2838566	0.33338428	-0.08280671	0.2920276	-0.1693792	0.46729746	-0.32494485	0.10649276	-0.13490127	0.12598579	0.2134389	-0.07084828	-0.030351408	0.15842514	0.51019335	0.23862803	0.041572783	-0.1460482	-0.14537565	0.19125365	0.34494668	0.41793618	-0.005095204	0.17461593	0.011278723	-0.4378469	-0.056283753	0.33296883	-0.4098034	0.19051574	0.31575942	0.046858363	0.16279723	0.11964016	0.03943265	0.0906032	0.08356556	0.07597306	-0.6468674	-0.4321229	-0.30325538	0.055994533	-0.055498004	0.07846611	-0.10690662	0.07906077	0.23407735	0.008661675	0.25245193	0.47195488	0.08755996	0.025431382	0.16077422	0.07848777	-0.47782502	0.042624842	-0.10914519	-0.19520263	-0.43398422	0.23231184	0.018694505	0.1436122	0.47423634	-0.38656592	-0.2567746	-0.23763463	-0.3410814	-0.4276178	-0.08376588	0.07106279	0.20088643	-0.14354281	0.0032072086	0.1586645	0.109963864	-0.37314177	-0.09969889	0.43424663	-0.30197728	-0.13858217	0.072515965	0.33504236	0.259965	-0.51038814	-0.7859004	0.006355328	-0.24971165	0.14224936	-0.01382198	-0.6092271	0.13447621	-0.28827146	0.1589944	0.09006095	0.583816	0.123250134	0.08561922	-0.31870067	-0.1906863	0.40195337	0.16711469	-0.12484784	Hepatoblasts
Hepatoblasts	0.041438647	-0.012526101	-0.06309845	-0.09846371	0.14580654	-0.014269758	-0.026640734	-0.045974817	0.14999631	-0.12773846	-0.07394251	0.09212311	0.13667692	-0.042516988	-0.11424922	0.021267103	-0.07899335	-0.26332158	-0.06347668	0.102500305	-0.0328181	-0.09617957	0.07166659	0.15155089	-0.05054638	-0.032899894	-0.12818421	0.066704564	0.024372583	0.051760003	0.08744879	0.02563738	-0.016053455	0.02327105	-0.11473437	-0.076763436	0.16369659	-0.21780129	0.04351909	0.099513665	0.09922435	-0.27035028	-0.0016246887	0.039056703	0.10234329	-0.028552763	-0.0929305	-0.1802397	-0.16287328	0.019194202	0.06997324	-0.036502603	0.14132217	-0.079929486	0.07046677	-0.08442675	-0.033466093	0.048731044	0.08332949	-0.06586909	-0.059976235	-0.038003873	0.055070315	0.17564496	-0.027187219	-0.05423779	0.14213762	-0.07523794	-0.037505027	-0.026094804	-0.13864173	0.26527622	0.19844879	0.028112922	0.18673888	0.110695705	-0.12760217	0.043274444	0.09543263	0.070880055	0.10769238	-0.11034102	0.12598203	-0.023815243	0.15280455	0.12199277	0.05720336	0.033167724	-0.19331816	0.10475368	0.023079282	0.2341226	0.13112593	-0.006901734	-0.007514056	-0.049585678	-0.024933888	-0.0866044	-0.036913767	0.03770158	-0.08246108	0.002361205	0.006894637	0.16379909	-0.08861034	0.00224101	-0.0012786675	0.007069505	0.11044505	-0.12686917	0.016020352	0.099822246	0.13516483	0.16514015	0.14466164	-0.15777546	-0.27058226	0.065355934	0.07463654	-0.022975398	0.03957937	0.18667608	0.057613302	-0.12131117	-0.10500557	0.27435085	-0.0032077567	0.0155658275	-0.033972744	0.096682824	-0.07000486	0.030875862	0.12588616	0.14770657	-0.12260031	0.068198375	0.06643554	-0.16118607	-0.04874532	0.12941481	-0.066018194	0.083010145	0.042364154	0.00886835	0.09354792	-0.017805988	-0.011647238	0.10500089	-0.02506793	-0.01775743	-0.056632403	0.11731389	-0.118118264	-0.10366005	-0.036673408	-0.12276192	-0.17462158	0.10018492	-0.03607324	0.029171532	0.13485311	0.05991287	0.00073941157	-0.1445802	0.07950001	-0.095601216	-0.012805313	-0.14756119	0.15753137	-0.04755565	-0.07634002	0.17025673	-0.10176078	-0.16029626	-0.059980914	0.07113135	-0.17260559	0.03900526	-0.11576121	0.094285145	0.047084603	-0.24636045	-0.11223437	0.05829109	-0.045647293	0.0054671527	-0.10838364	-0.149515	-0.044081833	-0.1662345	-0.010050276	0.036210302	0.17056188	0.23308125	0.16457853	-0.05849327	-0.24438733	0.17891262	-0.14619283	-0.09332565	Hepatoblasts
podocyte	0.3967551	-0.012167661	-0.020276317	-0.26093212	-0.2839166	0.28275543	0.09043268	-0.028293451	0.16554983	-0.22581927	0.08855558	-0.093235284	0.086748935	-0.15734811	0.07216524	0.12325101	-0.09886789	-0.5576695	0.017040575	-0.333515	0.13849008	0.24164467	-0.047535494	0.11155155	0.2102976	-0.21027826	0.25452033	-0.040172424	-0.65809524	0.31536412	-0.053658944	0.009815166	0.0006584999	0.49195278	0.07179754	-0.42480445	-0.044350185	-0.1987181	-0.1790583	-0.36735174	0.122578405	-0.5217263	0.5522762	-0.0772181	-0.006608026	0.50823313	-0.09328681	-0.17038082	0.31343347	0.09786581	-0.06635816	0.01919109	-0.108028404	-0.014897311	-0.6192042	-0.13114369	0.5477308	0.090994604	0.1079472	-0.1265548	0.18578407	0.02503176	0.22622961	-0.01906658	0.29981977	-0.024151118	-0.017988473	0.22256003	-0.18521228	-0.05922457	-0.08675126	-0.2281712	0.109384686	-0.28279153	0.03201765	0.1198527	-0.0054311343	0.55607533	0.017377494	-0.17037876	-0.24784642	-0.223774	-0.20109141	0.005875674	0.11894295	0.18097186	-0.26183125	-0.3254199	-0.08359864	-0.055277664	-0.027949568	0.27109438	0.17394368	-0.23787397	0.121000566	-0.1266604	-0.25395814	0.14894925	0.01741887	-0.027637767	-0.0913111	-0.07346956	-0.11268213	-0.16198675	-0.118770055	-0.047849234	-0.26749757	0.40000537	0.07213439	0.10208169	0.037187677	0.17428929	0.30986258	-0.28074485	0.27571893	-0.5364919	0.10516311	-0.09375994	0.07824228	-0.057054184	-0.10798788	-0.06447615	0.068009846	-0.29103372	0.06178769	0.28562585	0.258889	0.24415566	-0.11486603	-0.2770502	0.25980106	0.40184146	-0.14004281	-0.20253271	-0.352161	-0.36624968	-0.15975401	-0.100558914	-0.026904583	-0.22372143	0.1966583	0.0169293	-0.27384022	0.01021787	-0.12216107	0.08767376	-0.053777646	-0.28101584	-0.020561326	-0.008366412	0.12319747	0.2416696	-0.2724534	0.14381081	0.00047704045	0.09733124	-0.60938114	0.116538584	-0.4661378	0.30232686	-0.3534159	0.011999414	-0.1736105	0.12119707	-0.17963286	0.43746215	-0.18633282	-0.08314447	0.4468276	-0.036817476	-0.4203518	-0.10557304	-0.27981538	0.023547601	-0.4977437	0.056255918	-0.037585314	-0.1810844	-0.049690764	-0.20497638	-0.11264141	-0.08895283	-0.24980512	0.1773877	-0.056704223	0.10011507	-0.32731438	0.060579598	0.2703647	0.013188617	0.12237511	0.065091565	0.56867653	0.23160665	-0.12947448	-0.39731196	0.1206507	0.2345195	-0.18494447	-0.16591652	Podocytes
podocytes	0.30878735	-0.038480774	0.19249338	-0.01030949	-0.0942185	0.28753713	0.11145337	0.11156766	0.1703405	-0.16573203	-0.04079732	0.17482364	0.38827243	-0.18009724	0.10352443	0.07898719	-0.19962135	-0.736467	0.08980209	-0.025908181	0.10658343	0.2651241	0.013028952	0.12979925	0.19212134	-0.42120576	0.11687498	-0.07799955	-0.3670997	0.26755232	-0.026259424	0.16837086	-0.00062045874	0.30192146	0.17603454	-0.3926985	0.12519549	0.046155468	-0.18022671	0.012478009	0.19616225	-0.3988752	0.42401382	0.089186385	0.076195404	0.36991605	0.011196706	-0.30928248	0.032739706	-0.002979015	-0.17169754	0.03554622	-0.08972669	-0.07388267	-0.5133772	-0.0874979	0.4153821	0.2017271	-0.108453736	-0.11835104	-0.15325974	0.07590437	0.100483425	0.13343756	0.08841117	-0.14989191	0.13275047	0.3100288	-0.059786092	-0.22156312	-0.19657178	-0.15236995	0.21284112	-0.052060284	0.2517101	0.2620493	-0.07830719	0.39275023	-0.09394556	-0.1758711	-0.1346447	-0.2669207	-0.01770127	-0.14987265	0.17995696	0.11762905	-0.13700071	-0.23331259	-0.08229524	-0.051454566	-0.16210198	0.4199903	0.042522445	-0.3275931	0.20600963	-0.1333292	0.00965401	0.14594828	0.25466394	0.08018772	-0.14559346	-0.08842813	-0.26545975	-0.018386712	0.004921413	-0.02210309	-0.37305522	0.22014585	-0.1124588	0.27238524	0.18901536	0.2432717	0.41006985	-0.00949952	0.15602082	-0.42983767	-0.05814311	-0.14307532	0.028924955	0.15183116	-0.09729719	-0.044370968	-0.047542542	-0.20093223	-0.11732196	0.3360028	0.22309004	0.07819445	-0.06392967	-0.19384241	0.21182837	0.28442308	-0.13465688	-0.15107214	-0.27169007	-0.23055124	-0.22981523	-0.13372602	-0.049241114	-0.15457909	0.1619801	-0.0751111	-0.35205203	-0.010757001	0.01077237	0.22603296	-0.009301913	-0.030314906	-0.0872675	-0.1884648	0.13023779	0.15892933	-0.17904428	0.10242948	-0.0951088	-0.17776234	-0.5172914	0.25910774	-0.25161415	0.33946532	-0.30019882	-0.05248901	0.012189084	0.18185565	0.028383246	0.014166318	-0.115899175	0.06380151	0.5087318	-0.04434148	-0.3383025	-0.11777712	-0.31858444	-0.0881455	-0.43531987	0.2639925	-0.19954218	-0.003682356	0.0011303253	-0.039024808	-0.28973377	-0.15643327	-0.3596112	-0.032360904	-0.19675826	0.226527	-0.26981962	0.010238897	0.2765125	0.012754543	0.038491465	0.1527039	0.41959465	0.18085149	0.112255156	-0.1613647	0.018169148	0.23855847	-0.12906808	-0.2244236	Podocytes
Podocyte	0.30143437	-0.2532337	-0.2113664	-0.30436555	-0.30887616	0.34291205	-0.22068013	-0.18646993	0.21873973	-0.114569575	-0.030675221	-0.124967866	0.46387038	-0.20363668	0.017430156	0.12150592	0.031626996	-0.28329298	0.16711816	-0.31219894	0.22652456	0.10265938	0.23884098	0.20553654	-0.0597456	-0.1386901	0.4228447	0.18989104	-0.7050798	0.48676452	0.0829658	-0.117955156	-0.25266427	0.6385301	-0.4636682	-0.031523604	-0.087801315	-0.2938805	-0.11850634	-0.10203412	0.18661946	-0.8031688	0.34296784	-0.21683517	-0.19935179	0.3405236	-0.28149685	-0.12882346	0.34481227	0.37296087	0.17622861	-0.03106332	-0.16104552	-0.38499537	-0.38736984	0.006131885	0.54123557	0.12124794	-0.0038590473	-0.08928555	0.11553713	-0.026459362	-0.1283679	0.03326979	0.16284364	0.014289182	0.08341658	0.028233713	-0.36415458	-0.10319392	0.10410273	0.034065593	0.1511504	-0.1480713	0.19559582	-0.00016689397	-0.15204819	0.24633652	0.2835552	0.055648632	-0.40405682	-0.14512524	-0.018170072	-0.13457288	0.07688195	0.3689248	-0.3576606	-0.15707165	-0.23625709	0.07352208	-0.10824363	0.57788604	0.041903894	-0.0016602211	-0.26758617	-0.25475574	-0.008576865	-0.07285975	-0.37580252	-0.24696435	-0.08428312	-0.06475737	-0.00979043	0.019431992	-0.25702062	0.08007399	-0.22917815	0.040340915	-0.051286373	0.33717152	0.11025096	0.2796905	0.04233828	-0.1959037	0.18498747	-0.7374795	0.14706948	-0.04979403	-0.1028225	-0.075104125	0.135249	-0.20610666	0.004585465	-0.21121883	-0.114491254	0.4063132	0.31685713	0.34611508	0.12182597	0.035622347	0.07236075	0.29851696	-0.46385992	0.4198582	-0.47156784	-0.2789448	-0.05368744	0.020397972	-0.117754	-0.12768926	-0.028583894	0.15734868	-0.31511578	-0.18409786	0.10134542	-0.0017513407	-0.3889582	-0.21396877	-0.24874213	0.028778458	-0.08346527	0.41514403	-0.38037205	-0.009830979	-0.20263696	0.0770257	-0.70013934	0.13327794	-0.27848953	0.4581164	-0.32486027	0.078213945	-0.27435344	0.099669576	0.005562109	0.23490779	-0.038421046	-0.23932001	0.7181123	0.10286664	-0.44665965	0.187123	-0.27132526	-0.05948693	-0.52395666	0.09875805	-0.033493157	-0.13284814	0.0059776073	-0.33500588	-0.1192353	0.016429769	-0.16636404	-0.0254889	0.25629762	0.034050666	-0.07320546	0.20570521	-0.09028119	-0.08072834	0.14255513	-0.03188771	0.75745374	0.34962296	0.11745008	-0.20478994	0.06494712	0.020264622	-0.2978663	-0.10827549	Podocytes
